\data\
ngram 1=63
ngram 2=1018
ngram 3=10742

\1-grams:
-2.8916545	<unk>	0
0	<s>	-4.380211
-1.2457715	</s>	0
-1.4917885	a	-1.2392386
-1.5334375	s	-1.131585
-1.5636022	i	-1.1994097
-1.5334375	n	-1.0899758
-1.5636022	e	-1.2092017
-1.6131831	x	-0.7181831
-1.4418238	p	-1.0342386
-1.5960195	o	-1.1871061
-1.5482581	r	-1.0851964
-1.4418238	t	-1.127738
-1.6131831	f	-0.9698993
-1.5795084	d	-1.0325493
-1.5334375	m	-1.0412202
-1.5636022	g	-0.9579918
-1.5636022	u	-1.1099787
-2.115294	.	-0.42138
-2.174827	-	-0.5282787
-1.64969	j	-0.70125556
-1.5052326	c	-1.0582606
-1.5482581	b	-1.0456543
-1.5636022	w	-0.91065294
-1.5960195	h	-0.9524091
-1.5960195	y	-0.95179915
-2.2438369	'	-0.41531584
-1.5795084	l	-1.0817254
-2.115294	,	-0.46752694
-1.6131831	v	-0.81831425
-1.5795084	k	-0.92806137
-1.7571704	3	-0.86437744
-1.8676656	0	-0.88887006
-1.6895498	1	-0.9111673
-1.9356284	7	-0.9118579
-2.0629468	"	-0.5153709
-2.4272275	&	-0.5024919
-2.6448035	;	-0.35459974
-2.4272275	>	-0.3717174
-2.3259232	(	-0.41637442
-2.2438369	)	-0.36799565
-1.900319	5	-0.87008184
-1.8676656	6	-0.9088906
-1.900319	9	-0.8810669
-1.7109411	q	-0.5795224
-1.8676656	4	-0.87159103
-1.9740647	8	-0.9010903
-1.6895498	2	-0.8942155
-2.4272275	/	-0.5024919
-1.64969	z	-0.73317003
-2.6448035	:	-0.35459974
-2.6448035	?	-0.31671748
-2.6448035	^	-0.44199988
-2.7509215	$	-0.2196014
-2.7509215	{	-0.2196014
-2.7509215	ü	-0.2196014
-2.55959	+	-0.37755314
-2.6448035	*	-0.44199988
-2.7509215	[	-0.2196014
-2.7509215	]	-0.2196014
-2.7509215	!	-0.2196014
-2.7509215	_	-0.2196014
-2.7509215	~	-0.2196014

\2-grams:
-1.2702637	a </s>	0
-1.2513093	s </s>	0
-1.2954321	i </s>	0
-1.1844629	n </s>	0
-1.3349766	e </s>	0
-0.7465392	x </s>	0
-0.985521	p </s>	0
-1.3226047	o </s>	0
-1.1595054	r </s>	0
-1.2160392	t </s>	0
-1.1024936	f </s>	0
-1.1713021	d </s>	0
-1.0994118	m </s>	0
-1.0478731	g </s>	0
-1.2236512	u </s>	0
-0.6717608	. </s>	0
-0.39832395	- </s>	0
-0.755877	j </s>	0
-1.1248118	c </s>	0
-1.1046895	b </s>	0
-1.0263603	w </s>	0
-1.0654596	h </s>	0
-1.0431709	y </s>	0
-0.41271883	' </s>	0
-1.2142073	l </s>	0
-0.47060943	, </s>	0
-1.0117099	v </s>	0
-1.0548596	k </s>	0
-1.0572997	3 </s>	0
-1.0804448	0 </s>	0
-1.0007789	1 </s>	0
-1.0628386	7 </s>	0
-0.24385425	" </s>	0
-0.15277573	& </s>	0
-0.3459929	; </s>	0
-0.68413633	> </s>	0
-0.31019363	( </s>	0
-0.58799255	) </s>	0
-1.1121206	5 </s>	0
-1.0713645	6 </s>	0
-1.110385	9 </s>	0
-0.7736217	q </s>	0
-1.100909	4 </s>	0
-1.1007477	8 </s>	0
-0.94457716	2 </s>	0
-0.15277573	/ </s>	0
-0.85463494	z </s>	0
-0.3459929	: </s>	0
-0.4600713	? </s>	0
-0.18104048	^ </s>	0
-0.36538723	$ </s>	0
-0.36538723	{ </s>	0
-0.21854572	+ </s>	0
-0.18104048	* </s>	0
-0.36538723	[ </s>	0
-0.36538723	] </s>	0
-0.36538723	! </s>	0
-0.36538723	~ </s>	0
-1.1191015	<s> a	-3.4417691
-1.4656926	a a	-0.8225527
-1.3385164	s a	-2.943426
-1.3425547	i a	-2.6777842
-1.2651465	n a	-2.701215
-1.4029388	e a	-2.9832308
-1.2141261	x a	-1.6629051
-1.2106134	p a	-2.7537177
-1.4809387	o a	-2.1985843
-1.221869	r a	-2.9104614
-1.3188585	t a	-2.804737
-1.1553009	f a	-2.1904204
-1.2242953	d a	-2.4199612
-1.1766354	m a	-2.802787
-1.1761646	g a	-2.387119
-1.3140694	u a	-2.4745157
-0.9518365	j a	-2.258171
-1.220056	c a	-2.655922
-1.2226785	b a	-2.5540593
-1.0786711	w a	-2.5435162
-1.135483	h a	-2.9550257
-1.252754	y a	-1.6084789
-1.2823563	l a	-2.7176225
-1.1330734	v a	-2.1258502
-1.2290162	k a	-1.5497276
-2.1781108	1 a	-0.254509
-1.8726237	7 a	-0.33372003
-2.1491613	9 a	-0.33372003
-1.2079761	q a	-0.9219408
-2.1396854	4 a	-0.33372003
-2.1557221	8 a	-0.33372003
-2.1679301	2 a	-0.24220331
-0.9968332	z a	-1.5795168
-1.1252139	<s> s	-3.4517205
-1.3576508	a s	-3.0380354
-1.4538846	s s	-2.7543411
-1.3271387	i s	-2.952814
-1.2857169	n s	-2.7467318
-1.3347131	e s	-3.2389166
-1.492903	x s	-0.41276067
-1.277156	p s	-1.7788974
-1.3571335	o s	-2.7247968
-1.3932819	r s	-2.9977612
-1.3208504	t s	-3.0174317
-1.2708818	f s	-1.4937465
-1.2682093	d s	-2.3075283
-1.2549931	m s	-2.0555744
-1.305432	g s	-2.148938
-1.25739	u s	-2.6250687
-1.7364463	j s	-0.33372006
-1.3019911	c s	-1.7610023
-1.2892191	b s	-1.9193201
-1.3134844	w s	-1.8833251
-1.277877	h s	-1.9962088
-1.314642	y s	-2.4132812
-1.3681401	l s	-2.4713113
-1.3173091	v s	-3.1611047
-1.231583	k s	-2.298554
-1.22052	0 s	-1.6203201
-1.8134686	1 s	-2.4536703
-1.873558	q s	-0.27934134
-1.7587407	z s	-0.50740427
-0.38242736	ü s	-0.33372003
-1.2700713	<s> i	-3.3639672
-1.3925835	a i	-3.052653
-1.3036844	s i	-2.752703
-1.4223038	i i	-1.0776278
-1.3066072	n i	-2.651048
-1.387577	e i	-2.2408695
-1.1288881	x i	-1.5956923
-1.2343785	p i	-2.092147
-1.3583975	o i	-2.4195654
-1.2615157	r i	-2.9014268
-1.2838415	t i	-3.0799103
-1.2006658	f i	-2.8414354
-1.2481436	d i	-2.7544854
-1.2162781	m i	-2.5910518
-1.2024045	g i	-2.116028
-1.4109914	u i	-2.261499
-0.8240046	j i	-1.0930222
-1.2819725	c i	-2.5745323
-1.2062753	b i	-2.5270584
-1.1960595	w i	-2.7488897
-1.1592841	h i	-2.6934116
-1.3166138	y i	-2.3055825
-1.2491393	l i	-2.836265
-1.0816448	v i	-2.5934486
-1.180924	k i	-1.9822054
-2.190625	9 i	-0.33372003
-1.217139	q i	-1.1010447
-1.1016355	z i	-1.7949934
-1.71572	<s> n	-2.9063811
-1.3576508	a n	-3.3262541
-1.4538846	s n	-1.261972
-1.3105948	i n	-3.4290829
-1.4450829	n n	-2.4768336
-1.3512348	e n	-3.112427
-1.492903	x n	-0.8262715
-1.4451913	p n	-0.67360836
-1.339238	o n	-3.2778325
-1.3932819	r n	-2.528976
-1.4896593	t n	-1.593642
-1.8200834	f n	-0.5399695
-1.4584285	d n	-1.3443344
-1.3748267	m n	-0.8674842
-1.4045616	g n	-2.0417435
-1.25739	u n	-2.668389
-1.4853102	j n	-0.36245823
-1.5274271	c n	-0.73132753
-1.457238	b n	-0.67834496
-1.4780669	w n	-2.2796214
-1.4441875	h n	-1.6239122
-1.1792228	y n	-1.4831891
-1.3918687	l n	-2.9563518
-1.4793792	v n	-0.5053745
-1.3985535	k n	-1.5655905
-2.1738563	3 n	-0.33372003
-2.1977527	0 n	-0.33372003
-1.585776	q n	-0.33372003
-1.8094454	2 n	-2.1932168
-1.5055453	z n	-0.26037544
-1.6769669	<s> e	-2.9302151
-1.4908017	a e	-1.3089564
-1.3224031	s e	-2.9730492
-1.3455307	i e	-2.5923927
-1.2870581	n e	-2.9787428
-1.406284	e e	-2.709162
-1.27536	x e	-1.8848505
-1.302604	p e	-2.7649872
-1.417168	o e	-1.597775
-1.2615157	r e	-3.31711
-1.2486117	t e	-3.1872685
-1.1791145	f e	-2.6283052
-1.2696798	d e	-2.9591835
-1.1975305	m e	-2.9752343
-1.1581316	g e	-2.7321851
-1.2969596	u e	-2.3176203
-0.9556515	j e	-1.7583761
-1.3500116	c e	-2.8870306
-1.268018	b e	-2.7707794
-1.0621846	w e	-2.7243805
-1.180841	h e	-3.3500257
-1.230062	y e	-2.617831
-1.2491393	l e	-2.823705
-0.98774517	v e	-3.0496123
-1.1125804	k e	-2.622091
-2.1858273	5 e	-0.33372003
-1.4937278	q e	-0.35250232
-1.0007653	z e	-1.8574783
-3.8619437	<s> x	-1.1041685
-1.5652431	a x	-2.006581
-1.7976564	s x	-1.4368231
-1.5740962	i x	-2.1529129
-1.8229965	n x	-0.82402974
-1.5168235	e x	-2.7602258
-1.4168446	x x	-1.2997525
-2.000055	p x	-0.50637674
-1.5996845	o x	-1.3751248
-1.5176148	r x	-0.8526229
-1.4657637	t x	-0.86589694
-1.8354598	f x	-0.46641952
-1.6843973	d x	-0.5265801
-1.825936	m x	-0.8182094
-2.1558626	g x	-0.54323334
-1.887864	u x	-1.1066059
-1.616051	c x	-0.81786084
-2.0119994	b x	-0.50637674
-2.3454351	w x	-0.6101801
-1.9236718	h x	-0.26333869
-1.7960573	y x	-0.80647475
-1.5411102	l x	-0.7893881
-1.9060814	v x	-0.9794776
-2.1158152	k x	-0.33372003
-2.2196918	3 x	-0.33372003
-1.4034046	<s> p	-3.2172136
-1.404871	a p	-2.5397613
-1.3357769	s p	-2.4779868
-1.4829109	i p	-2.1566596
-1.4663352	n p	-1.2269069
-1.4608786	e p	-2.5527086
-1.3919908	x p	-2.6944516
-1.4375658	p p	-2.3632488
-1.3905046	o p	-2.6240897
-1.4717251	r p	-2.4824176
-1.5451313	t p	-1.6207238
-1.496273	f p	-0.60973114
-1.4182825	d p	-1.4339179
-1.3420572	m p	-2.7581804
-1.5221382	g p	-0.7619352
-1.4033798	u p	-2.3885865
-1.9552946	j p	-0.45350116
-1.4217677	c p	-1.1045241
-1.6619889	b p	-1.7093606
-1.4671754	w p	-0.57855326
-1.4766314	h p	-0.8657394
-1.4554222	y p	-1.145362
-1.5266113	l p	-1.577694
-2.1262088	v p	-0.254509
-1.9668784	k p	-0.7206474
-1.1910304	3 p	-1.2013264
-1.2141579	0 p	-1.5285101
-1.1971856	1 p	-1.3213845
-1.2091542	7 p	-1.3561467
-1.1280514	5 p	-1.8064747
-1.1687083	6 p	-1.22748
-1.2185696	9 p	-1.2422032
-1.5564898	q p	-0.24919237
-1.3271413	4 p	-1.2835959
-1.1592776	8 p	-1.1964458
-1.2446911	2 p	-1.3883313
-2.0259175	z p	-0.9630872
-1.3209921	<s> o	-3.272622
-1.4923271	a o	-1.4338616
-1.3433523	s o	-2.619158
-1.4237316	i o	-3.092917
-1.350112	n o	-2.6505747
-1.4920226	e o	-1.6955608
-1.2784488	x o	-1.5355191
-1.2151191	p o	-2.728861
-1.4401946	o o	-2.2655773
-1.2439986	r o	-2.9865446
-1.2850655	t o	-3.151912
-1.1804979	f o	-2.8867867
-1.1905112	d o	-2.2880647
-1.3261402	m o	-2.5802712
-1.3092465	g o	-2.3389022
-1.4397073	u o	-1.842866
-1.2878824	j o	-1.9939821
-1.2064042	c o	-3.0955937
-1.2075121	b o	-2.3290148
-1.1977087	w o	-2.6935387
-1.1400592	h o	-2.5149033
-1.206192	y o	-1.7683932
-1.2871221	l o	-2.725653
-1.2793162	v o	-1.9057988
-1.135562	k o	-1.3973113
-1.2908583	z o	-1.3904135
-1.5744092	<s> r	-3.0413516
-1.374766	a r	-3.1825783
-1.4295824	s r	-1.3351096
-1.3449339	i r	-2.5239282
-1.5050105	n r	-1.3836325
-1.335283	e r	-3.359803
-1.6044356	x r	-0.5862603
-1.2552408	p r	-3.1477644
-1.3226334	o r	-3.1702147
-1.5874077	r r	-2.53444
-1.2832308	t r	-2.934144
-1.2717358	f r	-2.672368
-1.3674924	d r	-2.1163545
-1.584837	m r	-0.99290264
-1.2255665	g r	-2.7766857
-1.2227829	u r	-2.8148897
-1.4879128	j r	-1.3671421
-1.2812591	c r	-2.423435
-1.2457701	b r	-2.4126024
-1.4796454	w r	-1.5351056
-1.3709861	h r	-2.586901
-1.284887	y r	-1.1761322
-1.5362232	l r	-2.9618754
-1.4200882	v r	-1.2917706
-1.4427059	k r	-1.2766865
-1.803562	3 r	-2.5351973
-1.3313609	q r	-0.2589014
-1.8796154	4 r	-0.33372003
-1.5080785	z r	-0.29639968
-1.012672	<s> t	-3.5935357
-1.353746	a t	-3.2055902
-1.246895	s t	-3.1632102
-1.3231497	i t	-3.1480143
-1.3416528	n t	-3.149694
-1.3471128	e t	-2.897981
-1.2088126	x t	-2.1239283
-1.3469182	p t	-2.105493
-1.3712112	o t	-2.7205322
-1.3388749	r t	-2.826353
-1.5128707	t t	-2.332543
-1.3818399	f t	-2.130371
-1.4853843	d t	-0.989345
-1.2936685	m t	-1.7108588
-1.4760169	g t	-1.6493286
-1.3113478	u t	-2.6969886
-1.7052132	j t	-0.36714202
-1.296788	c t	-3.0945003
-1.5225978	b t	-1.6794817
-1.2735776	w t	-1.8820353
-1.3298119	h t	-2.209078
-1.3753744	y t	-1.3228303
-1.319062	l t	-2.6483254
-1.2276394	v t	-0.6628626
-1.3516365	k t	-0.5330144
-2.1168652	3 t	-0.24220331
-1.3172345	0 t	-0.91121006
-2.1476514	1 t	-0.36714202
-1.8573065	7 t	-0.36714202
-1.7614138	5 t	-0.54323334
-1.8628225	6 t	-0.36714202
-1.6111263	9 t	-0.46405205
-1.2007824	q t	-2.519119
-1.7527475	4 t	-2.6975558
-1.7582934	8 t	-0.36714202
-2.1370087	2 t	-0.7193245
-1.8099017	z t	-0.29231107
-1.4639077	<s> f	-3.2186546
-1.515836	a f	-2.1859086
-1.4853703	s f	-1.3842883
-1.4244473	i f	-2.3453841
-1.5094708	n f	-2.0852537
-1.4928417	e f	-2.4281354
-1.4168446	x f	-0.6101801
-1.5261811	p f	-0.6538146
-1.4877048	o f	-3.3403115
-1.5928657	r f	-1.4540567
-1.5254784	t f	-1.3051598
-1.4706073	f f	-2.564107
-1.5825787	d f	-0.66234267
-1.4082807	m f	-0.9982279
-1.5413214	g f	-0.39107114
-1.569731	u f	-1.7557986
-1.4645988	c f	-0.8479527
-1.6836836	b f	-0.6274204
-1.5402147	w f	-0.6287694
-1.6578035	h f	-0.7049492
-1.5746	y f	-1.1467915
-1.4772625	l f	-1.8656865
-1.6494769	v f	-0.35375598
-1.4483235	k f	-1.0030471
-1.8757358	z f	-0.5236169
-1.5166681	<s> d	-3.0923822
-1.4299115	a d	-2.6767185
-1.4073726	s d	-1.7184962
-1.3828734	i d	-3.0237246
-1.327815	n d	-3.1584947
-1.3364252	e d	-3.163805
-2.104943	x d	-0.254509
-1.667971	p d	-1.7094535
-1.4178933	o d	-2.425411
-1.4515097	r d	-2.4410734
-1.674153	t d	-1.9906627
-1.5108503	f d	-0.574435
-1.4976586	d d	-2.2089355
-1.4370348	m d	-0.77471405
-1.5380647	g d	-1.3334368
-1.3624947	u d	-2.3271286
-1.8453255	c d	-1.1004096
-1.5785958	b d	-0.97723854
-1.6694936	w d	-0.9450056
-1.5923803	h d	-1.3296506
-1.5710348	y d	-1.1716223
-1.3706222	l d	-2.7301238
-1.8957618	v d	-0.6395053
-1.547297	k d	-0.8479908
-2.2007732	3 d	-0.254509
-1.899506	q d	-0.33372003
-1.8640468	z d	-0.33372003
-1.4340515	<s> m	-3.1306803
-1.3576508	a m	-2.3298342
-1.3610005	s m	-2.051623
-1.4208807	i m	-2.5080516
-1.5039027	n m	-2.0560544
-1.3684099	e m	-2.6891215
-1.492903	x m	-0.70293415
-1.4122751	p m	-1.9156044
-1.3953011	o m	-3.0187638
-1.4790587	r m	-2.4866583
-1.4611428	t m	-2.3384092
-1.4639028	f m	-0.6783583
-1.4256027	d m	-1.7500359
-1.4033422	m m	-2.4566853
-1.3360282	g m	-1.3587302
-1.25739	u m	-2.3895857
-1.6400361	j m	-0.28670517
-1.4919728	c m	-0.9012043
-1.5742514	b m	-1.1289154
-1.5917941	w m	-0.92277855
-1.4867332	h m	-1.2936828
-1.3476465	y m	-1.9262972
-1.4719913	l m	-1.6581275
-1.6352524	v m	-0.51053745
-1.4887465	k m	-1.2029548
-1.8965571	3 m	-0.27934134
-2.1685238	5 m	-0.33372003
-2.1879318	6 m	-0.33372003
-1.4867808	q m	-0.29231107
-1.6139468	z m	-0.3835499
-1.897684	<s> g	-2.7176037
-1.3753493	a g	-2.681457
-1.5416497	s g	-0.7919484
-1.4018012	i g	-2.590205
-1.3711635	n g	-2.9954345
-1.4463038	e g	-2.241984
-2.0946712	x g	-0.254509
-1.7270992	p g	-0.92130876
-1.4386691	o g	-1.8833725
-1.6314964	r g	-2.410721
-1.6299099	t g	-2.050379
-1.5093704	f g	-1.0604209
-1.4607093	d g	-1.7574024
-1.5046785	m g	-0.5514949
-1.5364455	g g	-1.7009454
-1.3856639	u g	-2.3015723
-2.0303357	j g	-0.33372003
-1.7118707	c g	-0.8865925
-1.4952465	b g	-0.5930595
-1.5347946	w g	-0.96555793
-1.8067096	h g	-0.6310524
-1.6305066	y g	-0.35204354
-1.4740921	l g	-1.3515565
-1.6408864	v g	-2.0745406
-1.5455253	k g	-0.98457724
-2.2154858	0 g	-0.33372003
-2.181149	4 g	-0.33372003
-1.8583183	z g	-0.26333869
-1.9181793	<s> u	-2.762123
-1.4908017	a u	-2.2252967
-1.4556804	s u	-2.615885
-1.4903495	i u	-1.6825581
-1.4202352	n u	-2.36948
-1.4258331	e u	-1.9360161
-1.4980121	x u	-0.7038377
-1.3279552	p u	-2.2994227
-1.3583975	o u	-2.9823437
-1.3016236	r u	-2.245742
-1.4361161	t u	-2.4334428
-1.2233428	f u	-2.3462303
-1.4607093	d u	-2.5330672
-1.4053109	m u	-2.0957928
-1.3073351	g u	-2.18904
-2.516334	u u	-0.39321184
-1.1454782	j u	-1.9831138
-1.4307266	c u	-2.5603168
-1.2907168	b u	-2.518927
-1.9986565	w u	-0.56671435
-1.372106	h u	-1.7013966
-1.5155983	y u	-0.9830209
-1.3052897	l u	-2.275355
-1.6408864	v u	-1.0019209
-1.4918604	k u	-1.1919961
-0.6914113	q u	-2.8814607
-2.209961	2 u	-0.254509
-1.2877877	z u	-1.1687393
-1.2463715	<s> .	-3.6822197
-0.8939778	. .	-2.195665
-1.5416456	- .	-0.33372003
-1.4752555	' .	-0.33372003
-1.6079625	, .	-0.254509
-1.513007	" .	-0.5779954
-1.05353	> .	-2.3627772
-0.950078	) .	-1.6203992
-2.072379	<s> -	-3.5724564
-1.34576	. -	-1.886588
-0.7332915	- -	-2.3022568
-1.6138977	, -	-0.33372003
-1.5331318	> -	-0.54323334
-1.2825444	( -	-0.6101801
-1.5579784	) -	-0.48065194
-2.2630742	<s> j	-2.5531673
-1.7234968	a j	-2.0341356
-2.3632867	s j	-0.27934134
-1.6766635	i j	-0.7456951
-1.89966	n j	-1.3805401
-1.8850993	e j	-1.5145632
-2.1486475	x j	-0.24220331
-1.8022432	o j	-1.6636244
-2.0723612	r j	-0.91280556
-2.0046134	t j	-0.5865855
-2.097699	f j	-0.32732224
-2.0190315	d j	-2.1059408
-2.262685	m j	-1.066112
-2.4197404	g j	-0.46405205
-2.236535	u j	-1.1598232
-2.2853124	c j	-0.28670517
-1.6874071	b j	-1.7936264
-2.1165962	w j	-0.66127867
-2.0784953	h j	-0.7404599
-2.0913658	l j	-0.668172
-2.0092196	v j	-0.24220331
-2.384009	k j	-0.6155212
-0.38679394	_ j	-0.33372003
-1.3217885	<s> c	-3.2476804
-1.3730209	a c	-2.668988
-1.339204	s c	-2.226176
-1.3259952	i c	-2.9588332
-1.3915757	n c	-2.8667111
-1.3671806	e c	-2.9693654
-1.330645	x c	-2.2546191
-1.2756659	p c	-2.6693888
-1.3558732	o c	-2.500391
-1.3664482	r c	-2.4266574
-1.339913	t c	-1.6376767
-1.2440494	f c	-0.8328267
-1.3931229	d c	-1.1169106
-1.3463426	m c	-1.316221
-1.5300285	g c	-0.9088069
-1.3586961	u c	-2.5263267
-1.6326882	j c	-0.37550166
-1.2392983	c c	-2.1397018
-1.3366687	b c	-1.1433481
-1.4749271	w c	-0.79433066
-1.3676437	h c	-0.8464749
-1.5093926	y c	-1.4424282
-1.3440773	l c	-1.7127324
-1.1975068	v c	-0.60652566
-1.7519413	k c	-0.53633994
-2.156796	3 c	-0.33372003
-2.1807153	0 c	-0.33372003
-1.874954	5 c	-0.254509
-1.8762461	9 c	-0.33372003
-1.5772051	q c	-0.26333869
-1.8990877	2 c	-0.33372003
-1.836131	z c	-0.8491438
-1.4296521	<s> b	-3.1746666
-1.3582115	a b	-2.3801804
-1.3412732	s b	-1.4170136
-1.4430741	i b	-2.0013704
-1.4193234	n b	-1.2651808
-1.4056128	e b	-2.1630723
-1.8394558	x b	-0.27934134
-1.725001	p b	-1.0220238
-1.4379084	o b	-1.985838
-1.449531	r b	-1.5753195
-1.5541475	t b	-0.9489608
-1.4263937	f b	-0.5523802
-1.4951758	d b	-0.6456568
-1.3757473	m b	-2.3332171
-1.6487541	g b	-0.3921581
-1.4101391	u b	-2.130158
-1.7410973	j b	-0.26333869
-1.460271	c b	-0.88433427
-1.4940469	b b	-1.4543467
-1.5330029	w b	-0.7612722
-1.4881957	h b	-0.7636847
-1.4235536	y b	-1.7616973
-1.4178932	l b	-1.3189048
-1.6380602	v b	-0.5468251
-1.4427059	k b	-0.8222854
-2.2108686	1 b	-0.46405205
-2.1770892	5 b	-0.33372003
-1.4902405	q b	-0.26037544
-1.5080785	z b	-0.818139
-1.5213867	<s> w	-3.0977888
-1.4908017	a w	-1.8625602
-1.6101592	s w	-1.6996701
-1.7518278	i w	-1.7153946
-1.5389901	n w	-1.3293202
-1.4463038	e w	-2.2755961
-2.0946712	x w	-0.6643765
-1.882863	p w	-1.1318492
-1.4386691	o w	-2.6681762
-1.7321074	r w	-1.6808774
-1.5552877	t w	-2.4986868
-1.931183	f w	-0.2727321
-1.4607093	d w	-1.3015416
-1.6337441	m w	-0.3885019
-2.0518167	g w	-0.6029662
-1.7486835	u w	-1.6945792
-1.7457987	j w	-0.7691932
-1.9266893	c w	-0.90238607
-1.8100247	b w	-0.8058175
-1.5347946	w w	-0.3862413
-1.7221236	h w	-1.223463
-1.7018272	y w	-1.0127985
-1.6540949	l w	-1.3951707
-1.9773144	v w	-1.1084367
-1.4441035	k w	-1.041547
-2.2154858	0 w	-0.33372003
-1.8906833	q w	-0.33372003
-1.6204796	z w	-0.8984597
-1.724547	<s> h	-2.904477
-1.4501985	a h	-1.4100057
-1.3433523	s h	-2.83275
-1.7119268	i h	-0.7313544
-1.5771636	n h	-1.4048387
-1.5159581	e h	-1.9732863
-1.6143984	x h	-0.841599
-1.3041897	p h	-1.7693255
-1.4401946	o h	-1.5391539
-1.5523598	r h	-1.3054377
-1.1316483	t h	-3.4535117
-1.8323406	f h	-0.7660821
-1.4989054	d h	-1.1496581
-1.823345	m h	-0.7678948
-1.3401226	g h	-2.447132
-1.568503	u h	-0.8266754
-2.0489314	j h	-0.27934134
-1.3049924	c h	-2.7816133
-1.6279689	b h	-1.0481787
-1.3931783	w h	-2.8085506
-1.655644	h h	-1.1075047
-1.7066522	y h	-0.83087724
-1.657294	l h	-0.9305688
-1.6465944	v h	-0.37550166
-1.4949969	k h	-1.3117876
-1.515768	z h	-0.5779954
-2.1564457	<s> y	-2.8515496
-1.4923271	a y	-2.6310883
-1.4574838	s y	-1.8832196
-1.6369818	i y	-1.4790466
-1.4776443	n y	-2.4282439
-1.54129	e y	-2.3308513
-1.6143984	x y	-1.0004038
-1.5680146	p y	-0.93276566
-1.5122077	o y	-1.8646744
-1.3473735	r y	-2.6520247
-1.3657144	t y	-2.4493337
-1.7467418	f y	-1.8355677
-1.3990346	d y	-1.9656616
-1.4712601	m y	-1.7631446
-1.53969	g y	-1.9727631
-1.6077027	u y	-1.9675771
-2.0489314	j y	-0.33372003
-1.571564	c y	-2.1959858
-1.4284257	b y	-2.5749686
-1.6000614	w y	-0.82887906
-1.4926128	h y	-1.3732831
-2.133029	y y	-0.254509
-1.3067198	l y	-2.7628028
-1.4252346	v y	-2.1203873
-1.4949969	k y	-1.7481195
-1.4272238	z y	-1.1999245
-2.183364	<s> '	-3.2685037
-1.8127273	. '	-0.8328344
-1.4851627	' '	-0.33372003
-1.6199151	, '	-0.26333869
-1.0576503	> '	-1.1800554
-1.5646365	) '	-0.33372003
-1.6326371	<s> l	-3.0189164
-1.3931912	a l	-3.0890417
-1.4073726	s l	-2.0227265
-1.3461283	i l	-2.9010065
-1.4211487	n l	-2.0050793
-1.3530134	e l	-2.6941671
-1.4126023	x l	-0.6932003
-1.2566624	p l	-2.6260538
-1.3590308	o l	-2.5935066
-1.3023264	r l	-2.282853
-1.3649771	t l	-2.2045376
-1.2480781	f l	-2.157177
-1.3980438	d l	-2.8109765
-1.4370348	m l	-2.951455
-1.2525482	g l	-1.7183678
-1.2976162	u l	-2.6167397
-2.0395339	j l	-0.254509
-1.2826872	c l	-2.5087578
-1.3154608	b l	-2.4704044
-1.4349763	w l	-1.2508265
-1.3401058	h l	-1.4751178
-1.1369712	y l	-1.2004511
-1.4751463	l l	-2.9513955
-1.2780846	v l	-0.86788005
-1.4023514	k l	-1.5370678
-1.5989581	q l	-0.36024868
-1.4251199	z l	-0.8051406
-1.3562856	<s> ,	-3.9954126
-1.3421903	. ,	-2.1292157
-1.4752555	' ,	-0.36024868
-1.6079625	, ,	-0.33372003
-1.513007	" ,	-0.668172
-0.92294717	> ,	-2.6493108
-1.0803463	) ,	-2.21224
-0.98750037	? ,	-0.33372003
-1.9278644	<s> v	-2.7917914
-1.4930918	a v	-2.5069244
-1.5141404	s v	-0.5745194
-1.4460751	i v	-2.8297431
-1.4499419	n v	-2.320465
-1.4701151	e v	-2.7445586
-2.144246	p v	-0.39154455
-1.39876	o v	-2.7633445
-1.6839459	r v	-2.6599517
-1.6339966	t v	-0.89584804
-2.1735888	f v	-0.24220331
-1.6305109	d v	-1.7532448
-2.161954	m v	-0.46641952
-1.8157434	g v	-0.2667477
-1.6090468	u v	-1.4077437
-2.0585365	j v	-0.254509
-1.936247	c v	-0.5675224
-1.6296026	b v	-0.8852935
-1.7611562	w v	-0.26037544
-1.7297211	h v	-0.8714544
-1.7960573	y v	-0.24524719
-1.576938	l v	-1.9229971
-1.9961749	v v	-0.33372003
-1.8811845	k v	-0.413934
-1.7819756	z v	-0.6155212
-2.581615	<s> k	-2.038951
-1.4111633	a k	-2.285324
-1.4565811	s k	-1.8178188
-1.516511	i k	-1.9696006
-1.6573913	n k	-2.4205694
-1.4685619	e k	-2.2069585
-1.8005185	p k	-0.40234348
-1.4178933	o k	-2.1546004
-1.4822401	r k	-2.4557233
-1.5922395	t k	-0.525978
-2.0753791	f k	-0.7126731
-1.6805866	d k	-0.41696823
-1.6354167	m k	-0.413934
-2.0571442	g k	-1.0825199
-1.3864695	u k	-0.99208695
-2.0395339	j k	-0.36024868
-1.5312134	c k	-2.272688
-1.3408577	b k	-0.872648
-1.5365938	w k	-1.007482
-1.8097707	h k	-0.95904064
-1.7042329	y k	-0.5468251
-1.7029438	l k	-1.7899286
-2.2228982	v k	-0.254509
-1.4934258	k k	-0.79984415
-2.2129734	6 k	-0.36714202
-1.899506	q k	-0.36714202
-2.1189106	z k	-0.24919237
-2.039967	<s> 3	-2.8007617
-2.78017	a 3	-0.33372003
-2.6728466	s 3	-0.33372003
-2.7373786	i 3	-0.33372003
-2.6623967	t 3	-0.33372003
-2.5759652	m 3	-1.4371799
-2.596569	c 3	-0.33372003
-2.4836538	h 3	-0.254509
-1.163267	3 3	-1.7000011
-1.1863327	0 3	-1.5593799
-1.1676656	1 3	-1.942688
-1.1289637	7 3	-1.5333596
-1.1429864	5 3	-1.5916799
-1.096908	6 3	-1.5195694
-1.1403283	9 3	-1.5013266
-1.1308523	4 3	-1.6161602
-1.1286494	8 3	-1.5300589
-1.1671201	2 3	-1.7811507
-2.013307	<s> 0	-2.8986938
-2.7366538	s 0	-0.33372003
-2.6387503	m 0	-1.1964458
-1.125342	3 0	-2.0648694
-1.1897309	0 0	-3.067357
-1.1707568	1 0	-2.2818909
-1.1317861	7 0	-1.7617024
-1.1461972	5 0	-2.2081323
-1.1410458	6 0	-1.8381108
-1.1434393	9 0	-1.7244904
-1.1339635	4 0	-1.9146969
-1.1315408	8 0	-1.8158782
-1.1289319	2 0	-2.1312742
-2.28032	z 0	-0.33372003
-1.6218485	<s> 1	-3.2132077
-2.7378304	a 1	-0.33372003
-2.6304762	s 1	-0.33372003
-2.5911808	n 1	-0.33372003
-2.7104065	e 1	-0.33372003
-2.172268	x 1	-0.33372003
-2.6856978	o 1	-0.33372003
-2.5786512	r 1	-0.33372003
-2.620636	t 1	-0.33372003
-2.460596	f 1	-0.254509
-2.5341966	m 1	-0.99553096
-1.1199296	3 1	-2.0221229
-1.1838013	0 1	-1.4271829
-1.052544	1 1	-1.9951378
-1.1268588	7 1	-1.5181774
-1.1405939	5 1	-1.6702864
-1.0949391	6 1	-1.5385842
-1.1380094	9 1	-1.4824752
-1.1285336	4 1	-1.6002439
-1.1264935	8 1	-1.4817808
-1.1647274	2 1	-1.7610545
-2.3090239	<s> 7	-2.6126547
-2.582715	g 7	-0.254509
-1.1683913	3 7	-1.6797777
-1.1914401	0 7	-1.4012963
-1.1723107	1 7	-1.9150114
-1.1332041	7 7	-1.4964122
-1.1478114	5 7	-1.5555592
-1.1425045	6 7	-1.4902809
-1.1450033	9 7	-1.53357
-1.1355274	4 7	-1.6173326
-1.1329937	8 7	-2.305557
-1.1719451	2 7	-1.8131839
-2.3998523	<s> "	-2.8792157
-1.2121428	. "	-2.9815118
-0.993238	' "	-0.36714202
-0.67601615	, "	-3.3027751
-1.5087847	" "	-0.33372003
-1.2763196	( "	-0.36714202
-1.544961	) "	-0.254509
-0.8660808	: "	-0.33372003
-0.98550594	? "	-0.99553096
-2.296386	<s> &	-3.7045014
-1.8342619	. &	-0.24220331
-1.0642246	- &	-0.254509
-1.4953011	' &	-0.33372003
-2.2931573	<s> ;	-3.6039314
-1.6416582	, ;	-0.33372003
-2.2995434	<s> >	-2.884038
-1.8342619	. >	-1.0230066
-1.6322061	, >	-0.33372003
-1.5782666	) >	-0.2470838
-2.7798333	<s> (	-2.6190844
-1.3529886	. (	-0.668172
-1.5259262	" (	-0.668172
-0.87165725	; (	-0.33372003
-1.5456847	> (	-0.33372003
-2.7921565	<s> )	-2.3522038
-1.8127273	. )	-1.2470021
-1.550535	- )	-0.33372003
-1.4851627	' )	-0.36714202
-1.521577	" )	-0.668172
-1.5393629	> )	-0.254509
-2.166175	<s> 5	-2.7363787
-2.5134287	w 5	-0.33372003
-1.167533	3 5	-1.7868272
-1.1905847	0 5	-1.5106772
-1.1300248	1 5	-2.1263278
-1.1324946	7 5	-1.7948039
-1.1470035	5 5	-1.676946
-1.1417745	6 5	-1.6313694
-1.1442206	9 5	-1.5763218
-2.0466106	q 5	-0.33372003
-1.1347448	4 5	-1.7401307
-1.1322666	8 5	-2.0938013
-1.0569917	2 5	-2.0168138
-2.304516	<s> 6	-2.607492
-2.6980014	n 6	-0.33372003
-2.5645313	f 6	-0.33372003
-2.6930041	l 6	-0.33372003
-1.1666765	3 6	-1.6696501
-1.1897309	0 6	-1.448757
-1.1293192	1 6	-1.9554137
-1.1317861	7 6	-1.5145619
-1.1461972	5 6	-1.5229089
-1.1410458	6 6	-1.5370483
-1.1434393	9 6	-1.5166153
-1.1339635	4 6	-1.6184142
-1.1315408	8 6	-2.4171648
-1.1703308	2 6	-1.7850403
-2.3853152	<s> 9	-2.517247
-2.1942377	j 9	-0.33372003
-2.7107942	l 9	-0.33372003
-1.167533	3 9	-1.5794455
-1.1905847	0 9	-1.6107852
-1.1715331	1 9	-2.7414062
-1.1324946	7 9	-1.476256
-1.1470035	5 9	-1.4608548
-1.1417745	6 9	-1.5291902
-1.1442206	9 9	-1.6116025
-1.1347448	4 9	-1.6113347
-1.1322666	8 9	-1.514952
-1.1711372	2 9	-1.7197264
-2.3597612	<s> q	-2.4950016
-1.6909819	a q	-1.4885188
-2.1435027	s q	-1.1347373
-1.764179	i q	-2.1443875
-1.9079969	n q	-1.4421712
-1.7043205	e q	-2.3872278
-2.5347247	p q	-0.33372003
-2.0871394	o q	-0.80647475
-2.3293805	r q	-0.50637674
-2.4740057	f q	-0.33372003
-2.1827264	d q	-1.3067448
-2.458478	g q	-0.254509
-1.9008467	u q	-0.5551844
-2.0641687	c q	-2.809076
-2.5464025	b q	-0.33372003
-2.4077473	w q	-0.33372003
-2.4555864	h q	-1.4552782
-2.445947	y q	-0.668172
-2.1046526	l q	-0.29231107
-1.9668595	q q	-0.33372003
-2.1666164	<s> 4	-2.7026134
-2.8172274	e 4	-0.33372003
-2.6930041	l 4	-0.54323334
-1.0876019	3 4	-1.680218
-1.1897309	0 4	-1.5767789
-1.1293192	1 4	-1.9809432
-1.1317861	7 4	-1.4775914
-1.1461972	5 4	-1.5784984
-1.1410458	6 4	-1.5632721
-1.1434393	9 4	-1.4878654
-2.034281	q 4	-0.33372003
-1.1339635	4 4	-1.6180054
-1.1315408	8 4	-1.5864168
-1.1703308	2 4	-1.7824365
-2.2778852	<s> 8	-2.61178
-1.1692512	3 8	-1.6585664
-1.1922972	0 8	-1.4349688
-1.1730899	1 8	-1.9175348
-1.133915	7 8	-1.5439272
-1.1486208	5 8	-1.5332499
-1.1432356	6 8	-1.5177145
-1.104142	9 8	-2.7268913
-1.094666	4 8	-1.6541724
-1.133722	8 8	-1.8213848
-1.1727545	2 8	-1.864389
-1.9465861	<s> 2	-2.8805354
-2.5911808	n 2	-0.33372003
-2.7104065	e 2	-0.33372003
-2.172268	x 2	-0.33372003
-2.5214245	p 2	-0.254509
-2.6856978	o 2	-0.33372003
-2.5341966	m 2	-0.9411733
-2.5544724	c 2	-0.33372003
-2.394549	w 2	-0.33372003
-2.5854719	l 2	-0.24220331
-2.293285	v 2	-0.33372003
-1.1607273	3 2	-1.7059058
-1.1838013	0 2	-1.4613461
-1.1244121	1 2	-2.0541675
-1.1268588	7 2	-1.5345197
-1.1405939	5 2	-1.6410416
-1.1359787	6 2	-1.5438908
-1.1380094	9 2	-1.6080278
-1.1285336	4 2	-1.6127574
-1.1264935	8 2	-1.5230299
-1.1647274	2 2	-1.8505446
-2.5831218	<s> /	-3.4178116
-1.8342619	. /	-1.1268098
-1.5520998	> /	-0.254509
-1.5782666	) /	-0.33372003
-3.2881513	<s> z	-1.6266519
-1.5415454	a z	-1.7618414
-1.7474865	s z	-0.69793063
-1.4258822	i z	-2.0066073
-1.66374	n z	-1.1686112
-1.664256	e z	-1.5062183
-2.245779	p z	-0.3471912
-1.7540998	o z	-1.046192
-1.8762742	r z	-0.6692341
-1.7284943	t z	-1.420355
-2.1874456	f z	-0.33372003
-2.0190315	d z	-0.26037544
-2.5084276	m z	-0.33372003
-1.9317671	g z	-0.4512038
-1.7036309	u z	-1.1546016
-1.8559043	c z	-0.796782
-2.2576282	b z	-0.2470838
-2.4166186	h z	-0.27934134
-1.8020597	y z	-0.6501803
-1.8257513	l z	-0.8562607
-1.9166523	v z	-0.46405205
-2.0376549	k z	-0.9460538
-1.2955052	z z	-1.1654725
-3.0055869	<s> :	-2.8917277
-1.5887777	) :	-0.24220331
-4.8394732	<s> ?	-0.82402974
-1.8511438	. ?	-0.33372003
-5.239911	<s> ^	-0.80647475
-1.8511438	. ^	-0.54323334
-5.964015	<s> $	-0.24220331
-6.5163193	<s> {	-0.33372003
-6.5163193	<s> ü	-0.33372003
-5.4619694	<s> +	-0.6101801
-1.8454432	. +	-0.33372003
-1.295268	( +	-0.6101801
-6.0775027	<s> *	-0.254509
-1.8511438	. *	-0.33372003
-5.964015	<s> [	-0.24220331
-5.964015	<s> ]	-0.24220331
-5.964015	<s> !	-0.24220331
-2.8910465	p _	-0.33372003
-6.5163193	<s> ~	-0.33372003

\3-grams:
-0.7169111	<s> a </s>
-0.6190714	a a </s>
-2.0204797	s a </s>
-0.7991933	i a </s>
-1.225544	n a </s>
-1.576029	e a </s>
-1.7923717	x a </s>
-2.0270905	p a </s>
-1.0334653	o a </s>
-1.750358	r a </s>
-1.268659	t a </s>
-2.0547519	f a </s>
-0.7644576	d a </s>
-2.0089235	m a </s>
-1.9754796	g a </s>
-1.9991856	u a </s>
-3.156	j a </s>
-1.3905083	c a </s>
-1.9003706	b a </s>
-1.404165	w a </s>
-2.3989573	h a </s>
-1.0504013	y a </s>
-1.6197641	l a </s>
-1.4640735	v a </s>
-0.770613	k a </s>
-0.3248301	1 a </s>
-0.53310776	7 a </s>
-0.25092587	9 a </s>
-1.7424647	q a </s>
-0.25092587	4 a </s>
-0.33894497	2 a </s>
-0.9049522	z a </s>
-0.91516995	<s> s </s>
-0.34199926	a s </s>
-0.30462986	s s </s>
-0.43534458	i s </s>
-0.2849168	n s </s>
-0.25045562	e s </s>
-1.2409078	x s </s>
-0.09669685	p s </s>
-1.4285758	o s </s>
-0.07351258	r s </s>
-0.015945341	t s </s>
-0.30891833	f s </s>
-0.03333909	d s </s>
-0.052789122	m s </s>
-0.016357666	g s </s>
-0.7342304	u s </s>
-0.08108862	c s </s>
-0.7484841	b s </s>
-0.16433708	w s </s>
-0.024206545	h s </s>
-0.38150033	y s </s>
-0.19169547	l s </s>
-0.0020815008	v s </s>
-0.009294218	k s </s>
-0.01256597	0 s </s>
-1.1484054	z s </s>
-2.0986226	<s> i </s>
-2.274009	a i </s>
-2.42009	s i </s>
-0.31858537	i i </s>
-2.1219652	n i </s>
-2.0422187	e i </s>
-1.4915804	x i </s>
-1.4142436	p i </s>
-2.6490579	o i </s>
-2.2245603	r i </s>
-2.0049543	t i </s>
-2.9583843	f i </s>
-1.7608703	d i </s>
-1.8956965	m i </s>
-2.2442386	g i </s>
-2.130489	u i </s>
-0.71794826	j i </s>
-2.0245028	c i </s>
-2.0780623	b i </s>
-3.147975	w i </s>
-1.779891	h i </s>
-2.9729285	y i </s>
-2.2623568	l i </s>
-2.3780506	v i </s>
-1.4886807	k i </s>
-0.2448996	q i </s>
-1.1772295	z i </s>
-1.9289948	<s> n </s>
-0.6544119	a n </s>
-0.55451965	s n </s>
-0.55038786	i n </s>
-1.3031735	n n </s>
-0.77055186	e n </s>
-1.193148	x n </s>
-0.49317357	p n </s>
-0.31191757	o n </s>
-0.62342685	r n </s>
-1.4215909	t n </s>
-0.6566364	f n </s>
-0.79153055	d n </s>
-0.45023614	m n </s>
-0.31328472	g n </s>
-1.7658385	u n </s>
-0.6546897	j n </s>
-0.43886364	c n </s>
-0.40449718	b n </s>
-0.23660456	w n </s>
-0.5903109	h n </s>
-1.0990597	y n </s>
-0.003114063	l n </s>
-0.58160514	v n </s>
-1.3798614	k n </s>
-0.2467385	0 n </s>
-0.5251237	q n </s>
-0.6026831	z n </s>
-2.2593856	<s> e </s>
-0.9465135	a e </s>
-0.50554645	s e </s>
-1.6331372	i e </s>
-0.66553855	n e </s>
-0.7052101	e e </s>
-1.991193	x e </s>
-1.5824069	p e </s>
-1.0920422	o e </s>
-0.6696842	r e </s>
-0.7552474	t e </s>
-1.5492743	f e </s>
-0.7685242	d e </s>
-0.7445505	m e </s>
-0.461555	g e </s>
-0.36176366	u e </s>
-2.2696035	j e </s>
-0.43531	c e </s>
-0.5298381	b e </s>
-0.97396415	w e </s>
-0.118075386	h e </s>
-2.4459825	y e </s>
-0.52431685	l e </s>
-0.50674117	v e </s>
-0.671696	k e </s>
-0.45511213	z e </s>
-0.38341513	<s> x </s>
-0.09282211	a x </s>
-0.021794371	s x </s>
-0.14592676	i x </s>
-0.57103705	n x </s>
-1.2549324	e x </s>
-1.2506242	x x </s>
-0.1754631	p x </s>
-0.61180574	o x </s>
-0.09602086	r x </s>
-0.11542554	t x </s>
-0.2664332	f x </s>
-0.28341123	d x </s>
-0.099304184	m x </s>
-0.617057	g x </s>
-0.4911302	u x </s>
-0.22865869	c x </s>
-0.1754631	b x </s>
-0.09766336	w x </s>
-0.3784548	h x </s>
-0.059560746	y x </s>
-0.19013532	l x </s>
-0.05497277	v x </s>
-0.45437887	k x </s>
-0.20804216	3 x </s>
-2.63494	<s> p </s>
-1.5805058	a p </s>
-2.2369602	s p </s>
-0.6991332	i p </s>
-0.2848141	n p </s>
-1.2069699	e p </s>
-2.3918066	x p </s>
-2.0555606	p p </s>
-1.003078	o p </s>
-0.18010034	r p </s>
-1.8836449	t p </s>
-0.20625387	f p </s>
-0.040369138	d p </s>
-1.7832557	m p </s>
-0.50316554	g p </s>
-0.21921675	u p </s>
-0.59092903	j p </s>
-0.8275226	c p </s>
-0.5749721	b p </s>
-0.721966	w p </s>
-0.22346854	h p </s>
-1.9042422	y p </s>
-0.23586819	l p </s>
-0.3001563	v p </s>
-1.5633285	k p </s>
-0.034379426	3 p </s>
-0.0116871195	0 p </s>
-0.018987253	1 p </s>
-0.017496835	7 p </s>
-0.0061230846	5 p </s>
-0.02369752	6 p </s>
-0.022886403	9 p </s>
-0.7329372	q p </s>
-0.020755284	4 p </s>
-0.02550543	8 p </s>
-0.016223423	2 p </s>
-2.0756793	<s> o </s>
-0.55176383	a o </s>
-0.677234	s o </s>
-1.8054898	i o </s>
-1.0488181	n o </s>
-1.0077593	e o </s>
-1.6467345	x o </s>
-2.4690616	p o </s>
-1.235316	o o </s>
-1.9019411	r o </s>
-0.1976875	t o </s>
-2.732126	f o </s>
-1.1396701	d o </s>
-1.95965	m o </s>
-0.69429195	g o </s>
-1.6570549	u o </s>
-1.1934955	c o </s>
-1.9698201	b o </s>
-0.6172884	w o </s>
-1.3070666	h o </s>
-0.7560498	y o </s>
-1.9879966	l o </s>
-1.6759495	v o </s>
-1.0714135	k o </s>
-0.911776	z o </s>
-2.567324	<s> r </s>
-0.7460665	a r </s>
-0.31818813	s r </s>
-0.7831109	i r </s>
-1.5802816	n r </s>
-0.39713815	e r </s>
-0.20564787	x r </s>
-2.579615	p r </s>
-0.45925218	o r </s>
-2.5270596	r r </s>
-0.99520195	t r </s>
-3.166712	f r </s>
-1.6987735	d r </s>
-0.4783753	m r </s>
-2.6941922	g r </s>
-1.075072	u r </s>
-0.017713137	j r </s>
-2.0584729	c r </s>
-2.2489471	b r </s>
-1.8905218	w r </s>
-0.30644894	h r </s>
-0.4404652	y r </s>
-1.025352	l r </s>
-0.9602906	v r </s>
-1.4358025	k r </s>
-0.9780237	q r </s>
-0.52252126	4 r </s>
-0.5396977	z r </s>
-2.4414158	<s> t </s>
-0.5228167	a t </s>
-0.5182456	s t </s>
-0.46787146	i t </s>
-0.4018739	n t </s>
-0.30564597	e t </s>
-0.41303965	x t </s>
-0.5964023	p t </s>
-0.5178605	o t </s>
-0.5750909	r t </s>
-0.97794294	t t </s>
-0.64729065	f t </s>
-0.17096682	d t </s>
-0.9259131	m t </s>
-1.4917951	g t </s>
-0.30727822	u t </s>
-0.22423324	j t </s>
-0.4367994	c t </s>
-0.14069347	b t </s>
-1.288987	w t </s>
-0.12197365	h t </s>
-1.8425877	y t </s>
-0.19261518	l t </s>
-0.25438696	v t </s>
-0.67889035	k t </s>
-3.2390752	q t </s>
-0.59730196	z t </s>
-2.2974749	<s> f </s>
-1.4034767	a f </s>
-1.2153316	s f </s>
-0.513005	i f </s>
-2.2107143	n f </s>
-1.029237	e f </s>
-0.48776177	x f </s>
-0.72979283	p f </s>
-0.11401314	o f </s>
-1.2786603	r f </s>
-1.5554044	t f </s>
-1.0606198	f f </s>
-0.6943409	d f </s>
-0.25548062	m f </s>
-1.1755179	g f </s>
-1.6306202	u f </s>
-0.32207146	c f </s>
-0.5694401	b f </s>
-0.45494878	w f </s>
-0.92405236	h f </s>
-1.8499962	y f </s>
-0.056001727	l f </s>
-0.47706583	v f </s>
-1.3867967	k f </s>
-2.3924682	<s> d </s>
-0.6533584	a d </s>
-1.7038213	s d </s>
-0.12547272	i d </s>
-0.17482404	n d </s>
-0.061797865	e d </s>
-0.0713609	p d </s>
-0.72822386	o d </s>
-0.22261035	r d </s>
-0.018622167	t d </s>
-0.76615065	f d </s>
-1.0950414	d d </s>
-0.71548885	m d </s>
-1.1027688	g d </s>
-2.0635724	u d </s>
-0.19674279	c d </s>
-0.38059866	b d </s>
-1.0336326	w d </s>
-0.90514284	h d </s>
-0.891186	y d </s>
-0.11537	l d </s>
-1.6142882	k d </s>
-0.31787252	3 d </s>
-0.24602388	q d </s>
-2.1612058	<s> m </s>
-0.8402679	a m </s>
-0.9794968	s m </s>
-1.3827239	i m </s>
-2.2673771	n m </s>
-1.018434	e m </s>
-0.984855	x m </s>
-1.7149258	p m </s>
-0.5872171	o m </s>
-0.5847018	r m </s>
-2.2092996	t m </s>
-0.83316016	f m </s>
-1.506913	d m </s>
-1.88877	m m </s>
-0.7498858	g m </s>
-0.49497607	u m </s>
-0.92918056	j m </s>
-0.60818	c m </s>
-0.52713835	b m </s>
-1.8970526	w m </s>
-1.3124506	h m </s>
-2.5638616	y m </s>
-0.50027144	l m </s>
-1.2316372	v m </s>
-0.55631983	k m </s>
-0.47178876	3 m </s>
-0.24173868	5 m </s>
-0.58118486	q m </s>
-0.61910087	z m </s>
-2.0055792	<s> g </s>
-1.5695915	a g </s>
-0.76031977	s g </s>
-1.7362846	i g </s>
-0.11893342	n g </s>
-1.8813084	e g </s>
-0.3068788	x g </s>
-0.4065831	p g </s>
-1.1716903	o g </s>
-1.1189361	r g </s>
-0.0736399	t g </s>
-0.07543761	f g </s>
-2.5555694	d g </s>
-0.45348686	m g </s>
-1.3361113	g g </s>
-1.4917855	u g </s>
-0.23823108	j g </s>
-1.255224	c g </s>
-0.4369858	b g </s>
-0.07704122	w g </s>
-0.46916127	h g </s>
-0.96934384	y g </s>
-1.3658073	l g </s>
-0.009020034	v g </s>
-0.14154327	k g </s>
-0.23823108	4 g </s>
-0.5118961	<s> u </s>
-1.3988913	a u </s>
-2.2212167	s u </s>
-1.530846	i u </s>
-2.5226638	n u </s>
-2.3118265	e u </s>
-1.045903	x u </s>
-2.2565348	p u </s>
-2.1643941	o u </s>
-1.8164446	r u </s>
-2.7717495	t u </s>
-2.7156374	f u </s>
-2.3898664	d u </s>
-2.2634146	m u </s>
-2.2591028	g u </s>
-3.02755	j u </s>
-2.2483983	c u </s>
-2.2438	b u </s>
-0.3984946	w u </s>
-2.3995163	h u </s>
-1.1069593	y u </s>
-2.828571	l u </s>
-1.533645	v u </s>
-1.9306792	k u </s>
-2.0428298	z u </s>
-0.01308521	<s> . </s>
-0.6013017	. . </s>
-0.19722615	' . </s>
-0.2502868	, . </s>
-0.33478928	" . </s>
-0.0014851294	> . </s>
-0.06672563	) . </s>
-0.026525965	<s> - </s>
-0.004798019	. - </s>
-0.006487741	- - </s>
-0.14171033	, - </s>
-0.08189601	> - </s>
-0.0692079	( - </s>
-0.17558847	) - </s>
-1.760767	<s> j </s>
-2.1197035	a j </s>
-0.77447677	i j </s>
-1.9542487	n j </s>
-1.7837253	e j </s>
-0.277436	x j </s>
-1.2771862	o j </s>
-0.55885255	r j </s>
-0.18554036	t j </s>
-0.6792915	f j </s>
-2.6849394	d j </s>
-0.40107074	m j </s>
-0.77658665	c j </s>
-1.3652285	b j </s>
-0.115481965	w j </s>
-0.09397471	h j </s>
-0.43436804	l j </s>
-0.277436	v j </s>
-2.4229345	<s> c </s>
-1.8035011	a c </s>
-1.84251	s c </s>
-0.8398963	i c </s>
-0.75269717	n c </s>
-1.1467832	e c </s>
-2.6553905	x c </s>
-1.6165076	p c </s>
-1.8590099	o c </s>
-1.912287	r c </s>
-0.7807318	t c </s>
-0.6415634	f c </s>
-0.56329614	d c </s>
-0.52977324	m c </s>
-0.7078703	g c </s>
-3.0902753	u c </s>
-0.6836722	j c </s>
-1.1507065	c c </s>
-0.39774215	b c </s>
-0.32301182	w c </s>
-0.4938862	h c </s>
-2.1831098	y c </s>
-0.3575559	l c </s>
-0.52309746	v c </s>
-0.42715073	k c </s>
-0.31406212	5 c </s>
-0.75702286	q c </s>
-0.5186746	2 c </s>
-1.2599158	z c </s>
-2.410518	<s> b </s>
-1.5362121	a b </s>
-0.99267465	s b </s>
-2.3013043	i b </s>
-1.129303	n b </s>
-0.94648355	e b </s>
-0.42896995	p b </s>
-1.2252977	o b </s>
-0.9202233	r b </s>
-1.1640987	t b </s>
-0.57010984	f b </s>
-0.85503477	d b </s>
-1.6763667	m b </s>
-1.1049429	g b </s>
-1.7603042	u b </s>
-0.75223374	j b </s>
-0.75295246	c b </s>
-0.9834424	b b </s>
-0.3397217	w b </s>
-1.1292588	h b </s>
-2.5521057	y b </s>
-0.5847235	l b </s>
-0.56190705	v b </s>
-0.7599208	k b </s>
-0.16527629	1 b </s>
-0.24207641	5 b </s>
-0.59026724	q b </s>
-1.356498	z b </s>
-2.759278	<s> w </s>
-0.5733097	a w </s>
-1.6981914	s w </s>
-1.2695996	i w </s>
-1.9212015	n w </s>
-0.14604145	e w </s>
-1.484223	p w </s>
-0.51763403	o w </s>
-1.4849232	r w </s>
-2.8186762	t w </s>
-0.7842452	f w </s>
-1.4970055	d w </s>
-0.6154746	m w </s>
-0.8842594	g w </s>
-1.3364621	u w </s>
-1.3909492	j w </s>
-0.59801215	c w </s>
-1.3024987	b w </s>
-0.47129557	w w </s>
-1.845539	h w </s>
-1.8353566	y w </s>
-1.7796185	l w </s>
-0.040827338	v w </s>
-1.437386	z w </s>
-2.356595	<s> h </s>
-0.7733817	a h </s>
-0.96823084	s h </s>
-1.0210454	i h </s>
-1.6901222	n h </s>
-1.739298	e h </s>
-0.9129578	x h </s>
-1.1173965	p h </s>
-1.254695	o h </s>
-1.9400647	r h </s>
-0.9600179	t h </s>
-0.6350586	f h </s>
-0.87630606	d h </s>
-1.0938772	m h </s>
-0.5536997	g h </s>
-1.4015238	u h </s>
-0.649834	j h </s>
-0.379599	c h </s>
-0.5033599	b h </s>
-3.5644557	w h </s>
-0.68201274	h h </s>
-1.4026046	y h </s>
-1.6108155	l h </s>
-0.5395215	v h </s>
-1.0787122	k h </s>
-2.217087	<s> y </s>
-0.17773293	a y </s>
-1.1088237	s y </s>
-1.8750967	i y </s>
-0.019195614	n y </s>
-0.03679978	e y </s>
-0.07966154	x y </s>
-0.2586879	p y </s>
-1.0571562	o y </s>
-0.02296535	r y </s>
-0.0154819535	t y </s>
-0.0848089	f y </s>
-0.07851515	d y </s>
-0.040856343	m y </s>
-0.050558317	g y </s>
-0.31332612	u y </s>
-0.074752994	c y </s>
-0.0055512656	b y </s>
-0.9172507	w y </s>
-0.32307464	h y </s>
-0.30640137	y y </s>
-0.057077523	l y </s>
-0.004349871	v y </s>
-0.48593917	k y </s>
-0.047436543	z y </s>
-0.00039924154	<s> ' </s>
-0.0704378	. ' </s>
-0.14536226	' ' </s>
-0.46230873	, ' </s>
-0.017964376	> ' </s>
-0.14536226	) ' </s>
-1.9992895	<s> l </s>
-0.37322363	a l </s>
-1.8299967	s l </s>
-0.612304	i l </s>
-1.612172	n l </s>
-0.86885345	e l </s>
-0.25561035	x l </s>
-2.3236868	p l </s>
-1.3410106	o l </s>
-1.7764943	r l </s>
-1.6323806	t l </s>
-2.1368513	f l </s>
-3.2282743	d l </s>
-2.8683739	m l </s>
-1.2994167	g l </s>
-1.5097044	u l </s>
-2.2555509	c l </s>
-1.7127836	b l </s>
-1.0265642	w l </s>
-0.66397107	h l </s>
-0.6558259	y l </s>
-0.3559609	l l </s>
-1.2487609	v l </s>
-1.789034	k l </s>
-0.87324715	q l </s>
-0.571234	z l </s>
-0.01997056	<s> , </s>
-0.013781524	. , </s>
-0.59368175	' , </s>
-0.15915933	, , </s>
-0.06653843	" , </s>
-0.0006447802	> , </s>
-0.026011053	) , </s>
-2.498478	<s> v </s>
-2.2960775	a v </s>
-0.81936836	s v </s>
-1.1987326	i v </s>
-1.637659	n v </s>
-1.7818614	e v </s>
-0.94529253	p v </s>
-2.135491	o v </s>
-2.4440553	r v </s>
-0.30834663	t v </s>
-2.2191749	d v </s>
-0.8976397	g v </s>
-0.303085	j v </s>
-0.43286017	c v </s>
-0.70775265	b v </s>
-0.5731929	w v </s>
-0.36476848	h v </s>
-1.9125559	l v </s>
-1.0800018	z v </s>
-0.7744595	<s> k </s>
-1.1913707	a k </s>
-0.65119594	s k </s>
-1.3172661	i k </s>
-0.19304116	n k </s>
-0.17714678	e k </s>
-0.41222307	p k </s>
-0.7095738	o k </s>
-0.66578287	r k </s>
-0.5325003	t k </s>
-0.6057884	d k </s>
-0.55970496	m k </s>
-0.43804604	u k </s>
-0.8365392	j k </s>
-0.20970075	c k </s>
-0.29275453	b k </s>
-0.24104175	w k </s>
-0.2569741	h k </s>
-1.2474447	y k </s>
-0.73602676	l k </s>
-0.57762045	k k </s>
-0.21577643	6 k </s>
-0.21577643	q k </s>
-0.48894677	<s> 3 </s>
-0.23890193	i 3 </s>
-0.014726965	m 3 </s>
-0.15671432	3 3 </s>
-0.11146531	0 3 </s>
-0.16847457	1 3 </s>
-0.16508333	7 3 </s>
-0.165049	5 3 </s>
-0.1584521	6 3 </s>
-0.16909711	9 3 </s>
-0.17448789	4 3 </s>
-0.13923302	8 3 </s>
-0.15447018	2 3 </s>
-0.7558803	<s> 0 </s>
-0.24049273	s 0 </s>
-0.02610055	m 0 </s>
-0.13473807	3 0 </s>
-0.23621753	0 0 </s>
-0.19135928	1 0 </s>
-0.19987057	7 0 </s>
-0.12544388	5 0 </s>
-0.18552496	6 0 </s>
-0.17236347	9 0 </s>
-0.16989943	4 0 </s>
-0.17414895	8 0 </s>
-0.14661998	2 0 </s>
-0.61487067	<s> 1 </s>
-0.23467	s 1 </s>
-0.23467	x 1 </s>
-0.3018816	f 1 </s>
-0.04141175	m 1 </s>
-0.07476988	3 1 </s>
-0.15054104	0 1 </s>
-0.17446825	1 1 </s>
-0.17003232	7 1 </s>
-0.13091427	5 1 </s>
-0.17979297	6 1 </s>
-0.15674949	9 1 </s>
-0.15973508	4 1 </s>
-0.14137636	8 1 </s>
-0.19742212	2 1 </s>
-0.3889265	<s> 7 </s>
-0.3083677	g 7 </s>
-0.17166579	3 7 </s>
-0.16052032	0 7 </s>
-0.14224242	1 7 </s>
-0.14472651	7 7 </s>
-0.16170076	5 7 </s>
-0.15299132	6 7 </s>
-0.30819923	9 7 </s>
-0.16622087	4 7 </s>
-0.024671888	8 7 </s>
-0.1410047	2 7 </s>
-0.0021950768	<s> " </s>
-0.00019473201	. " </s>
-0.08856942	' " </s>
-0.00009294057	, " </s>
-0.09650075	" " </s>
-0.08856942	( " </s>
-0.11867887	) " </s>
-0.09650075	: " </s>
-0.019273624	? " </s>
-0.000025446652	<s> & </s>
-0.080812804	. & </s>
-0.07833849	- & </s>
-0.06425629	' & </s>
-0.00008594992	<s> ; </s>
-0.12765607	, ; </s>
-0.06412844	<s> > </s>
-0.11639698	. > </s>
-0.19912761	, > </s>
-0.5308455	) > </s>
-0.002492268	<s> ( </s>
-0.050410114	. ( </s>
-0.050410114	" ( </s>
-0.117312774	; ( </s>
-0.117312774	> ( </s>
-0.14129944	<s> ) </s>
-0.11015661	. ) </s>
-0.18309118	- ) </s>
-0.16654234	' ) </s>
-0.07533643	" ) </s>
-0.39907497	<s> 5 </s>
-0.15063758	3 5 </s>
-0.14911309	0 5 </s>
-0.14610922	1 5 </s>
-0.13032344	7 5 </s>
-0.1404586	5 5 </s>
-0.12997416	6 5 </s>
-0.1711937	9 5 </s>
-0.1399531	4 5 </s>
-0.041687854	8 5 </s>
-0.108715236	2 5 </s>
-0.40284288	<s> 6 </s>
-0.23987803	f 6 </s>
-0.17519301	3 6 </s>
-0.15704587	0 6 </s>
-0.14135924	1 6 </s>
-0.15116929	7 6 </s>
-0.15359923	5 6 </s>
-0.16706501	6 6 </s>
-0.21247625	9 6 </s>
-0.17292278	4 6 </s>
-0.015562249	8 6 </s>
-0.13995408	2 6 </s>
-0.39349654	<s> 9 </s>
-0.17984444	3 9 </s>
-0.084858306	0 9 </s>
-1.0257876	1 9 </s>
-0.15434918	7 9 </s>
-0.1708633	5 9 </s>
-0.14773034	6 9 </s>
-0.30064622	9 9 </s>
-0.15562128	4 9 </s>
-0.13510834	8 9 </s>
-0.16349149	2 9 </s>
-3.1491323	<s> q </s>
-0.20054725	a q </s>
-1.550035	s q </s>
-1.9123677	i q </s>
-1.979648	n q </s>
-2.7406352	e q </s>
-0.21158025	p q </s>
-0.8891118	r q </s>
-1.7741071	d q </s>
-0.2698681	g q </s>
-1.391679	c q </s>
-0.5119458	l q </s>
-0.42935216	<s> 4 </s>
-0.16506732	3 4 </s>
-0.122484855	0 4 </s>
-0.2208837	1 4 </s>
-0.16441068	7 4 </s>
-0.16044712	5 4 </s>
-0.14343922	6 4 </s>
-0.15695706	9 4 </s>
-0.14397739	4 4 </s>
-0.13293117	8 4 </s>
-0.156762	2 4 </s>
-0.45030278	<s> 8 </s>
-0.14859392	3 8 </s>
-0.12651575	0 8 </s>
-0.14197813	1 8 </s>
-0.17404668	7 8 </s>
-0.15968001	5 8 </s>
-0.14783405	6 8 </s>
-1.4068462	9 8 </s>
-0.18451712	4 8 </s>
-0.06730112	8 8 </s>
-0.1051393	2 8 </s>
-0.47430563	<s> 2 </s>
-0.22992809	n 2 </s>
-0.22992809	o 2 </s>
-0.04648018	m 2 </s>
-0.22992809	c 2 </s>
-0.22992809	w 2 </s>
-0.30757803	l 2 </s>
-0.16133575	3 2 </s>
-0.12547508	0 2 </s>
-0.17595537	1 2 </s>
-0.17714942	7 2 </s>
-0.15083262	5 2 </s>
-0.1923965	6 2 </s>
-0.117818825	9 2 </s>
-0.16072352	4 2 </s>
-0.14958823	8 2 </s>
-0.14731151	2 2 </s>
-0.000049212013	<s> / </s>
-0.009726321	. / </s>
-0.07833849	> / </s>
-0.06425629	) / </s>
-0.95088893	<s> z </s>
-1.5435102	a z </s>
-0.14308122	s z </s>
-1.6537844	i z </s>
-0.48874927	n z </s>
-0.5071987	e z </s>
-0.92714614	p z </s>
-0.87647736	o z </s>
-0.949675	r z </s>
-0.18145369	t z </s>
-0.4776372	f z </s>
-0.23302867	g z </s>
-0.48371074	u z </s>
-0.5719258	c z </s>
-0.47417507	b z </s>
-1.2010021	y z </s>
-0.96112305	l z </s>
-0.15212446	v z </s>
-1.2898728	k z </s>
-1.5914054	z z </s>
-0.00044323856	<s> : </s>
-0.16394095	) : </s>
-0.53221595	<s> ? </s>
-0.15675128	. ? </s>
-0.023754384	<s> ^ </s>
-0.044593103	. ^ </s>
-0.17114134	<s> $ </s>
-0.13300948	<s> { </s>
-0.044323605	<s> + </s>
-0.08797682	. + </s>
-0.044323605	( + </s>
-0.09136231	<s> * </s>
-0.07473184	. * </s>
-0.17114134	<s> [ </s>
-0.17114134	<s> ] </s>
-0.17114134	<s> ! </s>
-0.13300948	<s> ~ </s>
-3.5049148	<s> a a
-1.6347998	a a a
-3.3789508	s a a
-3.5619571	i a a
-3.7449741	n a a
-4.2950587	e a a
-2.7926068	o a a
-3.2316177	r a a
-3.5608363	t a a
-3.431641	f a a
-3.7380536	d a a
-3.6277575	m a a
-3.221007	g a a
-3.382208	j a a
-3.9159899	c a a
-3.1699212	b a a
-3.532642	h a a
-2.3620534	y a a
-3.294045	l a a
-2.7925966	v a a
-2.7042816	k a a
-0.5820934	<s> s a
-2.4633648	a s a
-1.6264118	s s a
-1.7733347	i s a
-1.4014858	n s a
-2.4147666	e s a
-2.0106368	p s a
-1.3364186	o s a
-2.4806972	r s a
-3.6566434	t s a
-1.9081566	f s a
-2.951234	d s a
-2.1804752	m s a
-2.7822764	g s a
-1.5459851	u s a
-2.4662747	c s a
-2.566671	w s a
-3.0645764	h s a
-3.0888023	y s a
-3.0488489	l s a
-2.4771802	v s a
-0.2656	z s a
-3.408191	<s> i a
-3.625537	a i a
-1.4081968	s i a
-1.1572791	i i a
-1.4644873	n i a
-2.1685572	e i a
-1.9622432	x i a
-2.117724	p i a
-3.2564628	o i a
-1.2950834	r i a
-1.428033	t i a
-3.1133718	f i a
-0.996761	d i a
-2.651816	m i a
-1.3200495	g i a
-3.1094844	u i a
-0.9162803	j i a
-0.3974684	c i a
-1.2999494	b i a
-3.9453962	w i a
-2.4421723	h i a
-1.1983644	l i a
-1.4481668	v i a
-2.2764356	k i a
-1.9823413	z i a
-1.0224713	<s> n a
-1.3484124	a n a
-1.1986786	s n a
-1.405541	i n a
-1.5562174	n n a
-1.9211419	e n a
-1.5343305	x n a
-1.2871951	o n a
-0.68797106	r n a
-1.5059112	t n a
-1.4807736	f n a
-1.2967154	d n a
-1.3870647	m n a
-1.1765597	g n a
-1.829055	u n a
-1.1206489	j n a
-1.7621456	c n a
-1.7362707	b n a
-3.2691483	w n a
-2.5542486	h n a
-0.9514295	y n a
-3.4673052	l n a
-0.52716315	v n a
-0.9237468	z n a
-0.91473967	<s> e a
-1.4208384	s e a
-2.7756917	i e a
-1.8327205	n e a
-2.9961314	e e a
-1.2042857	p e a
-1.0640984	r e a
-2.114673	t e a
-1.7377223	f e a
-1.4352349	d e a
-1.454515	m e a
-2.2829728	g e a
-3.4985104	u e a
-1.9380989	j e a
-2.5241194	c e a
-1.4264466	b e a
-1.4052823	w e a
-1.5464021	h e a
-0.13636526	y e a
-1.0920094	l e a
-3.0457616	v e a
-2.4795372	k e a
-1.0193468	z e a
-2.1501265	<s> x a
-1.7614825	a x a
-2.0684044	s x a
-1.3371854	e x a
-1.630014	x x a
-1.6525431	t x a
-0.9935465	f x a
-1.3711756	d x a
-1.0495212	l x a
-0.8879677	<s> p a
-0.51964986	a p a
-0.9883056	s p a
-0.9542796	i p a
-1.348295	n p a
-0.7347248	e p a
-1.1967872	x p a
-1.5369071	p p a
-2.232393	o p a
-2.187295	r p a
-1.3236809	t p a
-1.3849984	f p a
-2.1917148	d p a
-0.33173153	m p a
-3.162687	u p a
-1.3563968	j p a
-1.2493186	c p a
-1.3830556	w p a
-1.8491222	h p a
-2.185394	y p a
-2.0388858	l p a
-1.5223702	k p a
-2.8627143	<s> o a
-2.3791416	s o a
-4.39367	i o a
-3.1681361	n o a
-2.324925	e o a
-3.5549908	p o a
-1.8153548	r o a
-4.419021	t o a
-3.4542062	f o a
-3.6293736	d o a
-3.7561965	m o a
-1.9170239	g o a
-2.7778778	j o a
-1.8210456	c o a
-0.8571652	b o a
-2.9553528	h o a
-1.1794294	l o a
-2.64756	k o a
-0.847306	<s> r a
-1.7419676	a r a
-0.85964733	s r a
-1.116402	i r a
-0.5803669	n r a
-1.133128	e r a
-1.3269848	x r a
-2.1026862	p r a
-1.600673	o r a
-1.1343757	r r a
-0.40344408	t r a
-0.9727528	f r a
-0.6631974	d r a
-2.0362918	m r a
-0.68720454	g r a
-1.2116015	u r a
-1.2327278	c r a
-0.69871026	b r a
-1.42902	w r a
-1.8739799	h r a
-1.0098629	y r a
-2.0622528	v r a
-0.7087799	k r a
-0.71364135	q r a
-0.762429	z r a
-1.4185098	<s> t a
-1.9186178	a t a
-0.8176093	s t a
-1.3876945	i t a
-1.3776886	n t a
-1.0418286	e t a
-1.4160409	p t a
-0.8215973	o t a
-1.2499535	r t a
-1.0965666	t t a
-2.1894946	f t a
-2.0909748	d t a
-2.3095717	m t a
-2.4367657	g t a
-2.262812	u t a
-1.983005	c t a
-1.0174901	b t a
-2.8050933	w t a
-3.0726416	h t a
-1.9887488	y t a
-2.0506313	l t a
-1.5501122	k t a
-1.093164	<s> f a
-2.2457225	a f a
-0.78017694	s f a
-2.531408	i f a
-1.1113061	n f a
-2.2027397	e f a
-0.9524772	p f a
-3.5723972	o f a
-1.0101502	r f a
-0.7159397	t f a
-2.0264065	f f a
-0.632714	d f a
-1.4688627	m f a
-1.2807397	g f a
-0.39371306	u f a
-0.8657389	c f a
-1.4470615	w f a
-1.2610127	h f a
-1.3316776	y f a
-1.7719219	l f a
-0.9523339	v f a
-1.6083976	k f a
-1.1918643	<s> d a
-1.3001457	a d a
-0.049630783	s d a
-1.650396	i d a
-1.597758	n d a
-3.1656492	e d a
-1.4906589	p d a
-0.8179415	o d a
-1.0278063	r d a
-2.8371491	t d a
-0.72632307	f d a
-1.8349873	d d a
-0.3590184	m d a
-2.1042016	u d a
-2.0353303	c d a
-1.8533015	w d a
-1.356073	h d a
-1.4010259	y d a
-3.0462341	l d a
-0.416532	v d a
-1.6343789	k d a
-0.5290083	z d a
-0.53400123	<s> m a
-1.1684529	a m a
-0.21964784	s m a
-0.77416426	i m a
-1.363935	n m a
-0.89891857	e m a
-0.8556051	x m a
-1.6126064	p m a
-1.7900417	o m a
-0.46460018	r m a
-1.6471751	t m a
-0.44452962	f m a
-0.9840183	d m a
-1.7838145	m m a
-0.7436142	g m a
-1.7679187	u m a
-1.4291679	c m a
-1.7589408	b m a
-0.4174751	w m a
-0.22675276	h m a
-1.3635447	y m a
-0.725359	l m a
-1.385357	v m a
-0.23085237	k m a
-0.48687297	z m a
-0.8068263	<s> g a
-0.76432836	a g a
-1.6176163	s g a
-1.4378641	i g a
-2.1981537	n g a
-0.63735735	e g a
-1.3994873	p g a
-1.8245035	o g a
-1.0347774	r g a
-0.9409531	t g a
-1.4984428	f g a
-2.623058	d g a
-1.128686	m g a
-1.6158407	g g a
-0.6935885	u g a
-0.53299403	b g a
-1.6784887	w g a
-0.52917707	h g a
-0.87249416	l g a
-1.2464013	k g a
-2.260559	<s> u a
-3.0326622	a u a
-1.7901578	s u a
-0.39977506	n u a
-2.4863265	e u a
-1.6504502	x u a
-2.32653	p u a
-2.983464	o u a
-0.5484364	r u a
-1.0530903	t u a
-1.7639843	d u a
-2.7489142	m u a
-0.89421874	g u a
-2.036578	j u a
-1.6056622	c u a
-1.8891915	h u a
-0.7315873	y u a
-1.5563682	l u a
-1.6856223	k u a
-0.48870626	q u a
-2.1704035	z u a
-0.22384073	<s> j a
-2.2088466	a j a
-0.8033456	s j a
-1.1568664	i j a
-1.2100112	n j a
-1.6083412	e j a
-1.6185018	o j a
-1.2865317	r j a
-1.8120669	d j a
-1.781887	u j a
-2.458826	b j a
-1.187103	h j a
-0.9291614	<s> c a
-2.2168024	a c a
-0.72652453	s c a
-0.76001376	i c a
-2.5220878	n c a
-1.1632208	e c a
-2.954587	x c a
-3.1282816	p c a
-1.0935585	o c a
-1.7860066	r c a
-2.3811593	t c a
-1.8235381	f c a
-0.27943817	d c a
-1.0627931	m c a
-1.203832	g c a
-2.1472592	u c a
-1.8014711	c c a
-1.9774358	b c a
-0.75534505	w c a
-0.5820488	h c a
-1.4430175	y c a
-1.1986217	l c a
-1.5064292	v c a
-1.273492	k c a
-0.72728497	<s> b a
-1.7801006	a b a
-0.25096023	s b a
-1.3539728	i b a
-1.051123	n b a
-1.1700733	e b a
-0.7540022	o b a
-0.7806614	r b a
-0.39819628	t b a
-1.4670454	f b a
-0.81319314	d b a
-1.1264738	m b a
-1.1490111	g b a
-1.7400169	u b a
-1.1296945	c b a
-1.8108003	b b a
-1.3892475	w b a
-1.4370693	h b a
-1.270723	y b a
-1.2029595	l b a
-1.0673674	k b a
-0.19303131	z b a
-0.7460797	<s> w a
-0.50967073	a w a
-0.90868205	s w a
-0.05961856	i w a
-0.43243638	n w a
-1.6326047	e w a
-0.09069437	p w a
-1.5614072	o w a
-0.21853468	r w a
-1.1841446	t w a
-1.0512401	f w a
-0.6845612	d w a
-0.84529555	m w a
-0.9876912	g w a
-0.03453266	u w a
-1.0254194	b w a
-1.0206741	w w a
-0.7261304	h w a
-1.0333172	y w a
-0.23463939	l w a
-0.33338618	k w a
-0.114420824	z w a
-0.36861658	<s> h a
-1.0566062	a h a
-0.46268803	s h a
-0.69036275	i h a
-0.13350321	n h a
-1.2167947	e h a
-0.19848114	x h a
-0.7803577	p h a
-1.0741853	o h a
-0.2362231	r h a
-1.079726	t h a
-0.64946204	d h a
-0.7678104	m h a
-1.8617193	g h a
-0.66911376	u h a
-0.5096403	c h a
-1.2698972	b h a
-1.2607191	w h a
-1.5677445	y h a
-1.2463698	l h a
-0.6359442	k h a
-0.6526451	z h a
-1.8800107	<s> y a
-1.5357597	a y a
-2.9634767	s y a
-0.04403112	i y a
-2.0334902	n y a
-2.984308	e y a
-1.0300657	p y a
-0.9003868	o y a
-2.6972907	r y a
-2.8359041	d y a
-2.451465	g y a
-2.3220174	u y a
-1.5444638	c y a
-2.4819255	b y a
-1.4210379	w y a
-2.0787714	k y a
-0.7369258	<s> l a
-1.5997298	a l a
-0.6417198	s l a
-1.5612574	i l a
-1.3137004	n l a
-1.265533	e l a
-0.47634354	p l a
-1.4791363	o l a
-1.4270396	r l a
-1.1921493	t l a
-0.5309487	f l a
-2.1268003	d l a
-2.2215853	m l a
-0.50178957	g l a
-0.95219696	u l a
-0.8682903	c l a
-1.5269233	b l a
-1.4307371	w l a
-1.1956701	h l a
-0.9435586	y l a
-1.1219668	l l a
-1.6678691	v l a
-0.9023919	k l a
-1.1575243	<s> v a
-1.1848131	a v a
-1.3443321	s v a
-1.0935041	i v a
-2.1957211	n v a
-1.4247571	e v a
-1.2503585	o v a
-1.2379773	r v a
-0.437911	d v a
-0.9440934	g v a
-1.384859	u v a
-1.7180116	h v a
-0.69432527	y v a
-1.0230453	l v a
-1.0150032	k v a
-1.0426594	<s> k a
-1.5084972	a k a
-0.9829926	s k a
-2.2103128	i k a
-1.7793024	n k a
-1.9808398	e k a
-1.9336785	o k a
-2.405554	r k a
-1.3354498	t k a
-1.1964778	f k a
-0.6257724	d k a
-1.1828731	u k a
-1.4246999	c k a
-1.3160536	y k a
-2.4261441	l k a
-0.5852676	k k a
-4.5911126	<s> 1 a
-2.892529	6 7 a
-2.9441373	9 7 a
-3.0379126	3 9 a
-2.145432	<s> q a
-1.2287867	a q a
-0.2479653	f q a
-1.9367095	d q a
-1.25527	u q a
-0.267915	q 4 a
-4.118243	<s> 8 a
-4.1258616	<s> 2 a
-0.83889985	<s> z a
-0.80399233	a z a
-1.380439	s z a
-0.56551373	i z a
-0.663082	n z a
-1.7265811	e z a
-0.90157014	p z a
-0.9756427	o z a
-1.4130695	r z a
-2.10944	t z a
-0.23435515	m z a
-0.94157284	u z a
-0.41824147	c z a
-0.6674755	l z a
-0.5062807	z z a
-1.2279459	<s> a s
-1.1637067	a a s
-2.3882923	s a s
-2.7080355	i a s
-2.2802804	n a s
-0.73623115	e a s
-0.31270346	x a s
-1.5866139	p a s
-1.2100906	o a s
-2.0750964	r a s
-1.8641613	t a s
-1.618343	f a s
-2.6657753	d a s
-2.102983	m a s
-0.9482279	g a s
-2.9215786	u a s
-3.0859756	j a s
-0.9223976	c a s
-0.8657617	b a s
-0.2972867	w a s
-0.7920542	h a s
-1.400749	y a s
-0.77427304	l a s
-1.9350458	v a s
-0.922038	k a s
-1.1263396	q a s
-2.6916878	z a s
-3.593536	<s> s s
-1.1136765	a s s
-3.022167	s s s
-1.1478667	i s s
-3.06521	n s s
-1.0544381	e s s
-0.44846874	o s s
-3.6419861	r s s
-4.1561904	t s s
-2.2642856	f s s
-3.3171937	m s s
-1.3949449	u s s
-2.0898519	c s s
-3.1655762	b s s
-2.439836	h s s
-2.369338	y s s
-3.0109742	l s s
-1.0098414	<s> i s
-1.5464829	a i s
-1.2723478	s i s
-1.4829514	i i s
-0.8119528	n i s
-1.9889077	e i s
-0.60196483	x i s
-3.0407782	p i s
-1.4585493	o i s
-0.99529076	r i s
-1.6903152	t i s
-1.5308063	f i s
-0.80022085	d i s
-0.8649624	m i s
-0.92849547	g i s
-0.66204065	u i s
-1.2389535	c i s
-2.1275413	b i s
-1.7062532	w i s
-0.6414877	h i s
-2.7743826	y i s
-1.3280389	l i s
-0.7126057	v i s
-1.2321979	k i s
-1.8633912	q i s
-2.9289372	z i s
-2.7389145	<s> n s
-1.4560173	a n s
-2.0581698	s n s
-1.4626358	i n s
-2.182916	n n s
-1.5314621	e n s
-1.2071165	x n s
-1.6534741	p n s
-0.94274503	o n s
-1.6966592	r n s
-2.6097994	t n s
-1.3970275	f n s
-2.010841	d n s
-1.2234316	m n s
-1.4237854	g n s
-1.8119829	u n s
-1.0091387	j n s
-1.5501921	c n s
-0.90236086	w n s
-0.837372	h n s
-3.303026	l n s
-1.434122	v n s
-2.5988495	k n s
-1.2908466	<s> e s
-0.6923101	a e s
-1.1295547	s e s
-0.31902385	i e s
-0.7880671	n e s
-1.3136542	e e s
-0.84217393	x e s
-1.7535232	p e s
-0.3255667	o e s
-0.74078995	r e s
-1.1125568	t e s
-2.290153	f e s
-1.1430092	d e s
-1.3589506	m e s
-1.0400225	g e s
-0.6394236	u e s
-1.9109223	j e s
-0.6477399	c e s
-2.017985	b e s
-0.94430697	w e s
-2.0175092	h e s
-1.1982038	y e s
-0.83467275	l e s
-0.9099671	v e s
-0.98943806	k e s
-0.2535907	5 e s
-1.8198922	z e s
-3.259025	a x s
-2.1258366	s x s
-3.2194004	e x s
-1.7384231	r x s
-1.6646391	l x s
-2.7624528	<s> p s
-1.7700818	a p s
-3.5374906	s p s
-0.973703	i p s
-2.181149	n p s
-1.8226477	e p s
-3.0268166	p p s
-1.4555982	o p s
-3.074132	r p s
-2.5639913	t p s
-1.4082516	f p s
-2.4372287	m p s
-1.5247898	u p s
-2.0398526	c p s
-2.642927	b p s
-1.7764224	h p s
-1.7758844	y p s
-1.4726274	l p s
-1.3700132	k p s
-3.1497636	<s> o s
-2.481763	a o s
-1.8942933	s o s
-2.9048328	i o s
-2.2019532	n o s
-1.7472196	e o s
-0.65899146	p o s
-1.0920632	o o s
-1.257444	r o s
-2.4823987	t o s
-2.4719353	f o s
-2.38594	d o s
-1.1621963	m o s
-1.7832192	g o s
-2.9413419	u o s
-1.6178259	j o s
-1.6682138	c o s
-1.8392608	b o s
-3.861588	w o s
-1.3038367	h o s
-2.9793339	y o s
-0.44818363	l o s
-3.006023	v o s
-2.3821993	k o s
-3.4861805	<s> r s
-1.5643939	a r s
-0.8042094	i r s
-0.9008706	e r s
-3.8082182	p r s
-1.4987389	o r s
-3.6212556	r r s
-3.058788	t r s
-3.1518676	f r s
-2.197242	d r s
-1.7618809	m r s
-1.6143514	u r s
-3.0974598	c r s
-3.447083	b r s
-0.88124776	h r s
-0.061971355	l r s
-2.2462854	k r s
-3.5300748	<s> t s
-2.170495	a t s
-1.3735195	s t s
-0.7745448	i t s
-1.0954834	n t s
-1.047202	e t s
-2.842624	x t s
-1.4579332	p t s
-2.3560803	o t s
-0.8631848	r t s
-1.9913298	t t s
-1.7062918	f t s
-1.9924676	d t s
-1.5059239	m t s
-2.087359	g t s
-1.2340926	u t s
-0.55377495	c t s
-1.2451687	b t s
-1.9023806	w t s
-1.0627573	h t s
-2.3823133	y t s
-1.3645176	l t s
-3.071158	<s> f s
-2.491006	a f s
-2.0929282	s f s
-3.0729115	i f s
-2.8580198	n f s
-2.8272028	e f s
-3.8075976	o f s
-2.531414	r f s
-1.224737	f f s
-1.5649459	m f s
-1.4404187	g f s
-2.8515406	u f s
-1.7398179	c f s
-1.5665194	b f s
-1.4964744	w f s
-2.4901903	l f s
-1.1397585	v f s
-3.4059467	<s> d s
-2.1383164	a d s
-2.8181787	s d s
-2.197991	i d s
-1.4710171	n d s
-2.0938122	e d s
-2.591126	p d s
-1.1116092	o d s
-1.218573	r d s
-2.944762	t d s
-1.4189029	f d s
-1.7948468	d d s
-1.8840295	m d s
-1.8568684	u d s
-1.0169336	c d s
-1.8739611	w d s
-2.3091269	h d s
-0.56908286	y d s
-1.4486474	l d s
-1.8596089	k d s
-3.234805	<s> m s
-1.4262261	a m s
-2.189799	s m s
-1.7469652	i m s
-2.968491	n m s
-1.1822511	e m s
-2.408409	p m s
-2.426156	o m s
-0.8715067	r m s
-1.7340816	f m s
-2.3845332	g m s
-1.639032	u m s
-1.3839521	c m s
-1.3572786	b m s
-2.008153	w m s
-1.9465879	h m s
-2.9671128	y m s
-1.7962309	l m s
-0.31019518	v m s
-1.2986298	k m s
-0.7893528	q m s
-2.5720327	<s> g s
-1.8687346	a g s
-1.7637088	s g s
-2.1802273	i g s
-1.1889324	n g s
-2.9278467	e g s
-1.815542	o g s
-2.4939187	r g s
-3.0924296	t g s
-2.8619885	d g s
-1.44809	m g s
-1.7668635	g g s
-2.3803444	u g s
-1.8126355	c g s
-1.8113052	k g s
-0.9473693	<s> u s
-0.36668807	a u s
-1.4932959	s u s
-1.4686294	i u s
-1.3206257	n u s
-1.8073723	e u s
-1.625219	x u s
-1.4361752	p u s
-1.0979364	o u s
-0.95657605	r u s
-1.7613928	t u s
-1.4464093	f u s
-0.6742589	d u s
-0.87515485	m u s
-1.1007473	g u s
-0.38837776	j u s
-0.93941975	c u s
-0.85576665	b u s
-1.0177588	h u s
-2.0041032	y u s
-0.79251075	l u s
-1.4499915	k u s
-3.1973808	q u s
-2.0575926	z u s
-3.8362813	<s> j s
-2.624756	e j s
-2.6073313	<s> c s
-3.1142354	a c s
-2.1568146	s c s
-1.5723584	i c s
-1.7372892	n c s
-3.1907575	e c s
-3.7129316	p c s
-3.1638887	o c s
-3.456641	r c s
-2.5121377	t c s
-0.754588	f c s
-2.210896	d c s
-2.0569062	m c s
-3.2886152	u c s
-2.9215612	c c s
-1.9028807	b c s
-1.4105608	w c s
-2.556251	l c s
-1.4064752	v c s
-1.2987746	k c s
-3.1205237	<s> b s
-1.9085598	a b s
-2.4209445	s b s
-3.0213163	i b s
-2.3990655	n b s
-3.0438373	e b s
-1.8643122	p b s
-1.1329588	o b s
-1.3023498	r b s
-1.9799979	t b s
-1.0665873	f b s
-1.3795338	d b s
-2.7789905	m b s
-0.44405589	u b s
-1.0150125	c b s
-1.7437992	b b s
-0.6860859	l b s
-1.7316118	k b s
-1.6733326	z b s
-3.6615953	<s> w s
-0.7611276	a w s
-2.743446	s w s
-2.1222088	n w s
-0.87016195	e w s
-1.490954	o w s
-3.4450307	t w s
-1.2778469	f w s
-1.3429681	m w s
-1.592989	g w s
-1.881433	c w s
-1.2062083	w w s
-1.7285283	l w s
-3.0281177	<s> h s
-2.5497527	a h s
-3.9329922	s h s
-1.4744612	i h s
-2.4522824	n h s
-2.7507093	p h s
-2.0317028	o h s
-2.3657973	r h s
-1.756203	t h s
-1.4723805	f h s
-1.3554255	m h s
-2.4414852	g h s
-1.8486508	u h s
-0.4903085	j h s
-2.4322388	c h s
-2.1202266	k h s
-0.81678826	a y s
-0.12832613	s y s
-2.912875	n y s
-2.029793	e y s
-1.9104767	x y s
-1.55061	o y s
-1.8782185	r y s
-2.6892986	d y s
-2.6152651	m y s
-0.8883771	u y s
-3.2420347	b y s
-0.8132957	w y s
-0.6437244	h y s
-1.0894145	l y s
-3.282405	<s> l s
-1.03009	a l s
-1.6910037	i l s
-2.940847	n l s
-1.1567177	e l s
-3.664718	p l s
-1.8167467	o l s
-2.76221	r l s
-3.3889184	t l s
-3.305567	d l s
-4.0228705	m l s
-2.3833644	g l s
-2.8376553	u l s
-3.6937206	c l s
-2.4096768	b l s
-2.5113266	h l s
-2.2548192	y l s
-1.4843043	l l s
-1.8020879	v l s
-0.15103321	<s> v s
-3.6645687	a v s
-1.6279454	s v s
-3.173087	i v s
-3.2948456	n v s
-0.71031636	e v s
-3.3329597	o v s
-1.1254842	d v s
-1.1857232	m v s
-1.3705783	c v s
-2.5173306	<s> k s
-2.1070566	a k s
-1.3031019	s k s
-2.9364822	i k s
-0.815316	n k s
-0.8794807	e k s
-1.3694954	o k s
-1.000376	r k s
-0.90882474	t k s
-1.3640674	m k s
-1.67824	g k s
-2.0666106	u k s
-0.9098418	c k s
-1.7740397	b k s
-1.781375	w k s
-0.19976845	l k s
-3.966072	<s> 0 s
-2.6179256	3 0 s
-3.358347	1 0 s
-1.690576	7 0 s
-2.8046832	5 0 s
-2.312003	6 0 s
-1.7383708	9 0 s
-2.910328	4 0 s
-2.0156276	8 0 s
-3.053091	2 0 s
-1.8273888	<s> 1 s
-3.4034293	3 1 s
-2.4447577	2 1 s
-3.6707559	<s> q s
-3.147973	a z s
-2.5056956	i z s
-1.8736607	l z s
-0.13757154	<s> ü s
-2.065422	<s> a i
-1.9599233	a a i
-0.1654387	s a i
-3.4571776	i a i
-2.6293454	n a i
-4.173259	e a i
-2.798256	x a i
-1.5203862	p a i
-1.1078782	r a i
-1.0135952	t a i
-0.8877349	f a i
-1.4282207	d a i
-1.1640514	m a i
-0.49998212	g a i
-3.109143	u a i
-2.591222	j a i
-2.481068	c a i
-2.2517202	b a i
-1.4037033	w a i
-1.5576066	h a i
-2.4339797	y a i
-1.6812209	l a i
-1.0197659	v a i
-1.630242	k a i
-1.6548607	z a i
-1.4313341	<s> s i
-1.4473253	a s i
-0.7672416	s s i
-0.9899543	i s i
-1.0387818	n s i
-1.5842727	e s i
-1.1060157	x s i
-1.419375	p s i
-1.1038815	o s i
-1.9755505	r s i
-2.434383	t s i
-2.006574	f s i
-2.6218305	d s i
-2.5563662	m s i
-2.638821	g s i
-1.0340563	u s i
-2.1451926	c s i
-0.28553602	b s i
-2.329864	h s i
-1.177017	y s i
-2.7334912	l s i
-3.9551709	v s i
-3.2517855	k s i
-0.25235498	ü s i
-3.196349	<s> i i
-3.1519263	a i i
-3.5850186	s i i
-1.0584213	i i i
-3.576851	n i i
-3.5257936	e i i
-3.078084	p i i
-2.9233902	o i i
-4.077786	r i i
-3.7261295	t i i
-4.1012015	f i i
-4.049258	d i i
-3.74255	m i i
-3.383507	u i i
-2.2559547	j i i
-3.5589983	c i i
-3.5012977	b i i
-3.9172692	w i i
-3.8425028	h i i
-4.068804	l i i
-1.8335799	k i i
-1.1124111	<s> n i
-1.646854	a n i
-2.064828	s n i
-1.4689656	i n i
-1.1609207	n n i
-1.8049569	e n i
-2.0023425	o n i
-0.7160061	r n i
-1.4901305	t n i
-1.6063907	f n i
-1.0101966	d n i
-0.86682916	m n i
-0.8814401	g n i
-0.6643179	u n i
-0.66855454	j n i
-1.785834	c n i
-1.6601278	b n i
-2.1988637	w n i
-0.8007141	h n i
-2.6167195	y n i
-3.3053792	l n i
-1.607282	k n i
-1.6502826	<s> e i
-2.7300398	s e i
-3.4040356	i e i
-2.5076923	n e i
-2.7603235	e e i
-3.0041783	x e i
-3.141899	p e i
-1.5269144	o e i
-1.7108117	r e i
-2.7223363	t e i
-2.8053734	f e i
-3.4202394	d e i
-3.110125	m e i
-2.7406363	g e i
-3.419302	u e i
-2.9783998	j e i
-1.5389144	c e i
-1.5758502	b e i
-1.7995243	w e i
-1.8006914	h e i
-2.404846	l e i
-2.799537	v e i
-2.6691806	k e i
-2.8747134	z e i
-1.1019459	<s> x i
-1.1724311	a x i
-2.0444508	s x i
-1.8476017	i x i
-0.22262372	n x i
-1.5301604	e x i
-0.37902477	o x i
-1.4791654	r x i
-1.7041826	t x i
-0.26375479	g x i
-0.771132	u x i
-1.8166958	<s> p i
-0.9772251	a p i
-1.1393499	s p i
-2.1017256	i p i
-2.0844817	e p i
-1.4949455	x p i
-1.0442269	p p i
-1.6602256	o p i
-2.232022	r p i
-2.6182494	t p i
-1.9354223	m p i
-0.846207	g p i
-2.3195713	u p i
-1.1310542	j p i
-1.1452777	c p i
-1.6742842	b p i
-1.4844596	w p i
-1.2780387	y p i
-1.432731	l p i
-0.17245723	k p i
-1.3929812	z p i
-1.3543515	<s> o i
-2.4823825	a o i
-2.678284	s o i
-4.2361045	i o i
-2.27009	n o i
-2.8364713	e o i
-1.3945122	p o i
-3.0809517	r o i
-3.0684807	t o i
-3.9539368	f o i
-2.0612147	d o i
-2.3487148	m o i
-1.4403785	g o i
-2.2449708	u o i
-0.69477904	j o i
-2.6219082	c o i
-2.6409369	b o i
-3.8624053	w o i
-2.5068243	h o i
-2.269505	y o i
-2.8435252	l o i
-1.0803597	v o i
-1.9821876	k o i
-0.9253721	z o i
-1.090497	<s> r i
-1.4957478	a r i
-0.94399625	s r i
-1.6356398	i r i
-1.1910427	n r i
-1.2972772	e r i
-0.5548556	p r i
-1.577376	o r i
-0.87828034	r r i
-0.76653457	t r i
-1.1527808	f r i
-0.6696486	d r i
-1.9708892	m r i
-1.1014473	g r i
-0.98090494	u r i
-1.2081503	c r i
-0.6781745	b r i
-0.12160999	w r i
-1.8137996	h r i
-1.0315154	y r i
-3.3680325	l r i
-1.8940126	v r i
-1.3992695	k r i
-1.98516	<s> t i
-0.5414955	a t i
-1.0391507	s t i
-0.8831389	i t i
-0.948125	n t i
-1.0449857	e t i
-1.2286316	x t i
-0.47967958	p t i
-1.1939994	o t i
-1.0432774	r t i
-1.078875	t t i
-1.5800653	f t i
-1.9742671	d t i
-1.8779317	m t i
-2.582188	g t i
-1.1033387	u t i
-0.7637393	c t i
-2.436454	b t i
-1.3943322	w t i
-2.0205781	h t i
-0.95135367	y t i
-1.5160059	l t i
-1.6128767	v t i
-1.4135708	k t i
-0.76595515	<s> f i
-2.6741378	a f i
-0.9576308	s f i
-0.5217811	i f i
-0.77435315	n f i
-0.5328245	e f i
-1.4283254	p f i
-1.1186916	o f i
-1.3000858	r f i
-1.4921639	t f i
-0.49095404	f f i
-0.70187604	d f i
-1.7454363	m f i
-1.0590441	g f i
-2.8033924	u f i
-1.4428742	c f i
-0.7336473	b f i
-0.40787017	h f i
-1.2610242	l f i
-1.9824295	k f i
-0.7748135	<s> d i
-0.94758934	a d i
-1.879828	s d i
-1.4552083	i d i
-1.1345841	n d i
-1.3431813	e d i
-2.5827737	p d i
-1.2819754	o d i
-0.89794874	r d i
-2.6816063	t d i
-0.58333176	f d i
-0.45295066	d d i
-1.7930068	m d i
-2.3034072	g d i
-0.66067547	u d i
-1.797002	c d i
-1.9378934	b d i
-2.1814053	h d i
-1.8241329	y d i
-1.2639118	l d i
-1.095685	k d i
-1.0283414	<s> m i
-1.2641164	a m i
-1.0336047	s m i
-0.9140307	i m i
-2.1507194	n m i
-1.1907539	e m i
-0.221972	x m i
-2.7682157	p m i
-1.1183282	o m i
-1.0303001	r m i
-1.8033876	t m i
-1.6202829	f m i
-0.2512273	d m i
-0.55302346	m m i
-1.073827	u m i
-0.9469282	c m i
-0.3125298	b m i
-1.2497348	w m i
-1.370794	h m i
-2.3900163	y m i
-1.3649778	l m i
-1.4046904	v m i
-0.975682	z m i
-1.3119739	<s> g i
-1.6543747	a g i
-1.7128755	s g i
-1.4555234	i g i
-1.9910014	n g i
-0.58642244	e g i
-1.8952554	p g i
-1.0638957	o g i
-1.1825403	r g i
-1.5031213	f g i
-1.4733638	d g i
-0.78192455	g g i
-3.2980611	u g i
-0.9664792	c g i
-1.2308995	b g i
-1.4522378	h g i
-0.36848775	l g i
-2.9955404	v g i
-0.44998923	z g i
-3.214545	<s> u i
-3.4744332	a u i
-1.6543932	s u i
-1.440303	n u i
-3.526096	p u i
-2.5244114	o u i
-2.0324519	r u i
-3.6716192	t u i
-3.1302128	d u i
-3.3135145	m u i
-0.935172	g u i
-1.7353314	j u i
-2.3547513	c u i
-1.4048495	b u i
-2.2088852	h u i
-2.1907437	l u i
-0.32719755	q u i
-2.1139936	<s> j i
-1.6396097	a j i
-0.8588419	s j i
-0.2558537	i j i
-1.6918303	n j i
-1.6491324	e j i
-1.7830483	o j i
-1.5643351	r j i
-1.0781078	t j i
-0.8321324	f j i
-2.7290664	d j i
-0.14996715	g j i
-0.04563442	u j i
-0.68993837	c j i
-2.3880906	b j i
-1.0180398	k j i
-1.879051	<s> c i
-1.2128935	a c i
-1.5014974	s c i
-0.85092217	i c i
-1.0002664	n c i
-1.1972283	e c i
-2.004619	x c i
-2.5403588	p c i
-0.9880522	o c i
-1.1669692	r c i
-2.1867626	t c i
-1.7803413	f c i
-2.1043346	d c i
-1.1847602	m c i
-1.3642257	u c i
-1.6504989	c c i
-1.4989825	b c i
-1.2778128	w c i
-1.2510103	h c i
-2.2836075	l c i
-1.5349556	v c i
-0.89144105	<s> b i
-0.84044236	a b i
-1.8067766	s b i
-0.92923105	i b i
-1.6594371	n b i
-1.8039497	e b i
-2.0184298	p b i
-1.193612	o b i
-0.703582	r b i
-1.719629	t b i
-1.6076801	f b i
-0.83710593	m b i
-1.1433294	g b i
-1.3673131	u b i
-0.450361	j b i
-0.95948404	c b i
-1.4475203	b b i
-1.3850175	w b i
-1.679629	h b i
-2.4996045	y b i
-1.6069012	l b i
-0.41205323	v b i
-0.74000245	q b i
-0.5545581	<s> w i
-1.5093262	a w i
-0.4032553	s w i
-0.77570707	n w i
-1.7087176	e w i
-1.1074818	o w i
-0.9487315	r w i
-1.8160119	t w i
-0.33435345	d w i
-1.2876552	m w i
-0.60564476	g w i
-2.4927747	u w i
-1.5895785	j w i
-1.209757	h w i
-1.1531159	y w i
-1.8129007	l w i
-1.1958251	k w i
-1.0145367	<s> h i
-1.2293359	a h i
-0.9464246	s h i
-1.5333062	i h i
-1.7684362	n h i
-1.0907825	e h i
-0.9215967	x h i
-0.5072939	p h i
-0.67153615	o h i
-1.2599809	r h i
-1.355726	t h i
-1.4016203	d h i
-0.414087	m h i
-2.306734	g h i
-0.28438643	u h i
-0.9963779	c h i
-1.8501306	b h i
-0.26929873	w h i
-0.24176803	l h i
-1.1521869	v h i
-1.6195259	k h i
-1.5906018	<s> y i
-1.4920527	a y i
-3.0053523	s y i
-2.5320466	n y i
-1.6347274	p y i
-2.1402042	o y i
-1.8511083	r y i
-3.2243125	t y i
-0.7883167	f y i
-1.4434562	d y i
-0.77339786	u y i
-2.7815087	b y i
-2.001765	l y i
-2.7207577	v y i
-0.93946326	<s> l i
-1.336175	a l i
-0.7590349	s l i
-1.0376021	i l i
-0.9432649	n l i
-1.0714453	e l i
-0.8760069	p l i
-0.8702558	o l i
-0.46815935	r l i
-1.4324173	t l i
-1.4872205	f l i
-2.0436664	d l i
-2.7922332	m l i
-1.0668818	g l i
-1.8979867	u l i
-0.3234663	j l i
-0.8235603	c l i
-0.74135345	b l i
-1.8517811	w l i
-1.3632342	h l i
-1.2039323	y l i
-0.60913336	l l i
-1.7543994	v l i
-0.9241564	k l i
-1.5920476	z l i
-1.1283287	<s> v i
-0.8866383	a v i
-0.38963798	s v i
-0.72167206	i v i
-1.0544596	n v i
-0.7003509	e v i
-0.75223196	o v i
-0.53201264	r v i
-1.2225711	t v i
-0.46020782	d v i
-0.92538404	g v i
-1.2937579	u v i
-0.22395603	b v i
-0.5894101	h v i
-0.6831672	y v i
-0.8370341	l v i
-0.6829467	k v i
-0.8982053	<s> k i
-0.85429895	a k i
-0.99951524	s k i
-1.7003999	i k i
-1.2065356	n k i
-1.0514377	e k i
-1.1734958	o k i
-1.3849337	r k i
-0.13355237	f k i
-1.0488477	d k i
-0.81911516	m k i
-0.9986208	u k i
-1.6134614	c k i
-0.89790744	w k i
-1.8956177	h k i
-1.2987603	y k i
-1.0994097	l k i
-0.7855578	z k i
-4.0210824	<s> 9 i
-2.4026353	<s> q i
-0.7664497	a q i
-3.2895765	e q i
-0.74491686	u q i
-0.24842656	w q i
-0.6031619	<s> z i
-0.20255688	a z i
-1.3572406	i z i
-0.98564273	n z i
-1.4812211	e z i
-1.6005558	o z i
-1.4684587	r z i
-0.5897528	d z i
-1.9565537	u z i
-0.3406864	y z i
-1.6582129	l z i
-0.25991488	z z i
-0.5641122	<s> a n
-1.0991734	a a n
-1.6802169	s a n
-0.75871265	i a n
-0.97225624	n a n
-1.2394916	e a n
-1.6220613	x a n
-0.39032498	p a n
-0.6039808	o a n
-0.8201283	r a n
-0.9894782	t a n
-2.2555385	f a n
-1.3498393	d a n
-0.6188751	m a n
-0.8223522	g a n
-1.6627915	u a n
-0.39834997	j a n
-0.638783	c a n
-0.31715626	b a n
-1.1051401	w a n
-0.8300904	h a n
-1.0096785	y a n
-0.6504538	l a n
-0.90937513	v a n
-0.8137544	k a n
-1.7715178	q a n
-1.5067058	z a n
-3.0281653	<s> s n
-3.2404077	a s n
-3.6370835	s s n
-3.0399013	i s n
-3.4924707	n s n
-3.1862872	e s n
-3.0454135	p s n
-2.25384	o s n
-4.2857113	r s n
-4.1561904	t s n
-3.4459379	d s n
-3.1115084	u s n
-3.0277593	c s n
-2.1345098	b s n
-3.0941424	w s n
-3.030639	h s n
-3.5693116	l s n
-0.22289942	<s> i n
-0.7023796	a i n
-0.7007959	s i n
-1.8353927	i i n
-0.5857944	n i n
-0.7920575	e i n
-1.3021991	x i n
-0.59745437	p i n
-0.550137	o i n
-0.93584526	r i n
-0.7782938	t i n
-0.7977152	f i n
-0.5539661	d i n
-0.4228289	m i n
-0.4119523	g i n
-1.1518801	u i n
-0.98743254	j i n
-1.1167306	c i n
-1.3654078	b i n
-0.971128	w i n
-0.8442982	h i n
-0.09799164	y i n
-0.7243145	l i n
-0.8827358	v i n
-0.11789506	k i n
-0.49260867	q i n
-0.69610804	z i n
-4.2167273	<s> n n
-1.5608591	a n n
-2.4242413	i n n
-3.3477051	n n n
-2.1919098	e n n
-1.4228507	o n n
-3.7070394	r n n
-2.688176	t n n
-1.6805824	f n n
-3.0005865	g n n
-2.094898	u n n
-1.8578417	c n n
-1.6165277	b n n
-3.2564414	w n n
-2.7234328	h n n
-1.7127414	y n n
-0.8244468	<s> e n
-1.9525207	a e n
-1.2400349	s e n
-1.366983	i e n
-2.0406187	n e n
-0.74463385	e e n
-2.87436	x e n
-0.91323996	p e n
-1.4793845	o e n
-1.2580235	r e n
-1.2497904	t e n
-1.5449011	f e n
-1.0327095	d e n
-0.38891914	m e n
-0.8901329	g e n
-1.4019084	u e n
-1.5539247	j e n
-0.95672745	c e n
-1.5443574	b e n
-1.9096771	w e n
-1.7555678	h e n
-1.1050617	y e n
-1.4714226	l e n
-0.9502913	v e n
-1.3132564	k e n
-1.1090095	z e n
-2.6595433	e x n
-1.8533194	t x n
-0.9457414	d x n
-1.7036611	c x n
-1.819556	l x n
-3.135451	<s> p n
-3.6512651	a p n
-3.7247312	s p n
-3.3344975	i p n
-2.2530308	n p n
-3.797156	e p n
-3.2720401	p p n
-3.8191803	o p n
-2.2404995	t p n
-3.9179132	m p n
-1.1800535	j p n
-2.309916	c p n
-1.9725087	h p n
-0.7892701	<s> o n
-2.1022155	a o n
-0.7828703	s o n
-0.057925597	i o n
-1.375587	n o n
-1.3273436	e o n
-0.04415934	x o n
-1.3158344	p o n
-1.0951791	o o n
-1.4774867	r o n
-1.0679624	t o n
-3.236754	f o n
-0.83056617	d o n
-0.34387314	m o n
-1.6490216	g o n
-1.6477513	j o n
-0.6073018	c o n
-1.0906112	b o n
-1.8069029	w o n
-1.3513807	h o n
-1.022983	y o n
-1.1040325	l o n
-1.5228213	v o n
-0.6019947	k o n
-0.20086741	z o n
-4.188901	<s> r n
-1.5684735	a r n
-2.5304756	s r n
-2.6599822	i r n
-1.2411886	e r n
-4.259466	p r n
-1.741771	o r n
-3.6864166	t r n
-3.4377723	f r n
-2.0344908	m r n
-3.9597454	g r n
-1.3797718	u r n
-3.035565	c r n
-3.447083	b r n
-3.9744818	l r n
-2.1154764	v r n
-2.3691056	k r n
-4.001342	<s> t n
-3.779315	a t n
-3.6429055	s t n
-3.3096488	i t n
-3.8912168	n t n
-3.105966	e t n
-2.8203242	p t n
-1.5643666	r t n
-2.8479245	t t n
-3.0481865	f t n
-3.4953055	u t n
-4.3092203	c t n
-2.3149753	h t n
-3.5386534	l t n
-3.4323094	q t n
-3.217679	<s> f n
-3.6491048	a f n
-3.629849	e f n
-3.794875	f f n
-1.545604	m f n
-3.2172616	<s> d n
-2.938673	a d n
-1.8936957	s d n
-2.7291949	i d n
-3.1098943	n d n
-2.5490613	e d n
-2.7978008	p d n
-3.253922	o d n
-2.5152855	r d n
-1.8120213	m d n
-1.6730174	c d n
-0.99239063	y d n
-2.7165782	l d n
-3.1757665	<s> m n
-2.7651985	a m n
-3.1278048	s m n
-3.7351773	i m n
-3.2103522	n m n
-2.8375452	e m n
-3.3919222	o m n
-3.1364603	r m n
-3.6367726	m m n
-2.4511743	g m n
-2.1400476	u m n
-1.9938383	c m n
-1.9876812	w m n
-3.036295	y m n
-2.7486372	l m n
-1.3266696	v m n
-2.0734138	<s> g n
-1.8573364	a g n
-0.5565282	i g n
-2.958004	n g n
-3.0393558	e g n
-1.371255	o g n
-3.6331775	r g n
-3.1436646	t g n
-2.9217284	d g n
-3.3264532	u g n
-2.0523198	c g n
-2.5051641	l g n
-0.40580428	<s> u n
-1.4120831	a u n
-1.7106483	s u n
-2.1103086	i u n
-2.8559418	n u n
-2.2842972	e u n
-1.4941543	x u n
-2.0660167	p u n
-0.70109564	o u n
-1.331201	r u n
-1.5309279	t u n
-0.6401614	f u n
-2.1718655	d u n
-0.5344579	m u n
-1.6535199	g u n
-0.5139644	j u n
-1.4221108	b u n
-0.869279	w u n
-0.9571763	h u n
-1.2640033	y u n
-1.8325254	l u n
-1.6649394	v u n
-1.729202	k u n
-0.32400638	2 u n
-3.061945	<s> j n
-1.7561556	i j n
-2.1180432	o j n
-0.84281945	c j n
-3.1924882	<s> c n
-3.5914915	a c n
-3.3468728	s c n
-3.0412412	i c n
-3.600167	n c n
-3.7488496	e c n
-1.779845	d c n
-2.4764004	m c n
-1.4887114	g c n
-3.2660453	c c n
-1.8444686	h c n
-2.8930805	l c n
-3.332234	<s> b n
-2.652004	a b n
-2.3384593	s b n
-3.1035914	i b n
-3.4327624	e b n
-3.2570052	o b n
-2.8233523	r b n
-2.0646224	t b n
-1.6622101	f b n
-1.3729523	g b n
-1.7452021	c b n
-2.2255788	b b n
-2.4498308	l b n
-3.8910153	<s> w n
-1.1049234	a w n
-2.932151	s w n
-2.7234144	i w n
-2.3448746	n w n
-0.6260707	o w n
-2.5784755	r w n
-3.6395655	t w n
-2.0604072	y w n
-3.3142982	<s> h n
-0.9615649	a h n
-3.258749	s h n
-2.5603025	e h n
-0.3297761	o h n
-2.3385122	r h n
-4.6936502	t h n
-3.2667153	g h n
-1.9329838	u h n
-1.6886169	c h n
-1.9895024	l h n
-3.7771478	<s> y n
-2.8131266	a y n
-1.2551194	s y n
-2.9410832	n y n
-1.8906776	e y n
-1.8519964	x y n
-1.8371496	p y n
-2.5746405	o y n
-3.0617864	r y n
-3.397474	t y n
-1.1031843	d y n
-2.6266031	u y n
-3.1302524	c y n
-2.805101	b y n
-1.6709318	w y n
-2.3861473	h y n
-1.7075764	l y n
-2.690757	v y n
-1.7308128	z y n
-3.1584496	<s> l n
-3.2577991	a l n
-4.0477524	i l n
-3.04547	n l n
-2.98842	e l n
-1.5834217	x l n
-3.6756687	p l n
-2.9397254	o l n
-3.3520222	r l n
-4.00319	d l n
-0.00583064	m l n
-2.924014	g l n
-2.6949637	u l n
-3.0904882	c l n
-3.57055	b l n
-2.6889365	h l n
-2.3678916	y l n
-3.343359	l l n
-3.7801712	<s> v n
-3.580919	a v n
-3.486824	n v n
-3.598968	e v n
-3.2098098	o v n
-1.0702907	c v n
-2.869456	l v n
-1.1947949	<s> k n
-1.9756132	a k n
-2.3008437	n k n
-1.2876322	p k n
-2.8658087	r k n
-1.3756642	d k n
-1.0906298	g k n
-2.1050622	c k n
-1.1623217	b k n
-1.6362734	w k n
-2.367601	l k n
-4.349043	<s> 3 n
-0.2682538	z 0 n
-3.8114204	<s> q n
-2.0693753	s q n
-1.8664443	<s> 2 n
-3.0768743	3 2 n
-3.230359	2 2 n
-2.8719814	<s> z n
-2.3771539	n z n
-1.7695659	r z n
-2.113739	u z n
-0.70960563	h z n
-2.8666942	<s> a e
-3.7522001	s a e
-3.6808724	i a e
-3.5621786	n a e
-4.3125243	e a e
-3.8055465	p a e
-2.8247159	r a e
-3.8826814	t a e
-3.3722794	f a e
-3.604219	d a e
-3.0199387	m a e
-3.5679028	g a e
-2.4676087	u a e
-2.2167072	c a e
-2.9094985	b a e
-3.7877498	w a e
-2.589034	h a e
-3.4785094	l a e
-2.9332757	v a e
-2.7932217	k a e
-0.9856943	<s> s e
-0.8423499	a s e
-0.8506609	s s e
-0.90421945	i s e
-1.2553273	n s e
-1.2128785	e s e
-1.2663931	x s e
-1.1785473	p s e
-0.61437494	o s e
-1.5895772	r s e
-2.3786702	t s e
-0.63232213	f s e
-2.1702418	d s e
-1.6896796	m s e
-0.72888476	u s e
-0.6971818	j s e
-2.8637874	c s e
-1.3088074	b s e
-3.0558517	h s e
-2.2926202	y s e
-1.6337775	l s e
-3.7717462	v s e
-3.3430882	k s e
-3.487314	<s> i e
-3.9285262	a i e
-2.158083	s i e
-2.1044893	i i e
-1.2101107	n i e
-3.2195938	e i e
-1.6920063	x i e
-1.249129	p i e
-1.0419168	r i e
-1.3323702	t i e
-1.3932922	f i e
-1.746502	d i e
-2.0195918	m i e
-1.6471266	g i e
-2.1719382	u i e
-2.2120364	j i e
-1.0975747	c i e
-2.5918229	b i e
-3.0850244	w i e
-1.5594484	h i e
-0.7109355	y i e
-1.0592511	l i e
-0.9019032	v i e
-2.0274985	k i e
-1.7193059	z i e
-0.37023917	<s> n e
-1.7852578	a n e
-0.8843917	s n e
-1.1619444	i n e
-0.25838843	n n e
-1.2404499	e n e
-1.1089423	p n e
-1.130224	o n e
-0.99952126	r n e
-0.06379123	t n e
-1.3975267	f n e
-0.2309002	d n e
-0.7428517	m n e
-0.7467704	g n e
-1.2676225	u n e
-1.3525985	c n e
-1.7497373	b n e
-0.62273186	w n e
-1.4646252	h n e
-0.8682242	y n e
-2.5809329	l n e
-0.69289607	k n e
-0.7540602	z n e
-2.5999744	<s> e e
-2.547155	a e e
-1.2787619	s e e
-1.6695762	n e e
-3.321617	e e e
-2.0743103	p e e
-1.2247748	r e e
-1.6837841	t e e
-1.0121665	f e e
-2.486396	d e e
-1.3390659	m e e
-3.0472322	g e e
-2.0912173	u e e
-2.334819	j e e
-1.7939099	c e e
-0.95986474	b e e
-0.65808654	w e e
-2.8522737	h e e
-1.8963916	y e e
-2.2617137	l e e
-3.8033051	v e e
-1.6746125	k e e
-1.9408276	z e e
-0.95349663	<s> x e
-1.1852558	a x e
-0.85010844	i x e
-1.3597355	e x e
-1.0308759	p x e
-1.1568458	o x e
-1.3962768	d x e
-0.43258464	u x e
-1.0176069	<s> p e
-1.2307334	a p e
-0.44384557	s p e
-1.0799363	i p e
-1.2005564	n p e
-1.214241	e p e
-0.3881507	x p e
-0.69631577	p p e
-0.29477772	o p e
-1.7836182	r p e
-2.575603	t p e
-1.9013597	d p e
-1.1950474	m p e
-1.3759884	u p e
-2.2222276	c p e
-0.53870255	y p e
-0.884031	l p e
-1.6546423	k p e
-2.70804	<s> o e
-3.6159427	s o e
-3.0697765	n o e
-2.9513738	e o e
-2.4325745	x o e
-2.2136877	p o e
-2.9802015	r o e
-3.575848	t o e
-4.140368	f o e
-1.2800895	d o e
-2.9123352	m o e
-1.7183423	g o e
-1.972532	j o e
-3.7816162	c o e
-2.4113467	b o e
-3.801912	w o e
-2.091443	h o e
-2.9400363	y o e
-2.9443765	l o e
-1.5372279	k o e
-1.6140392	z o e
-0.17694601	<s> r e
-0.7194337	a r e
-1.9528025	s r e
-0.5754591	i r e
-0.4684738	n r e
-1.0074903	e r e
-0.7036093	p r e
-0.9812317	o r e
-0.21826139	r r e
-1.1847943	t r e
-1.0003499	f r e
-0.86739326	d r e
-1.0273151	m r e
-0.44409838	g r e
-0.66901106	u r e
-0.24435827	c r e
-1.1242504	b r e
-1.1953235	w r e
-0.65417457	h r e
-0.7527615	y r e
-1.4970278	l r e
-0.16971971	v r e
-0.84325886	k r e
-1.4845625	<s> t e
-0.52702683	a t e
-0.92354494	s t e
-1.2857943	i t e
-0.8087188	n t e
-1.2719549	e t e
-0.554941	x t e
-0.5949522	p t e
-0.6587852	o t e
-0.6950106	r t e
-0.3648477	t t e
-0.18191317	f t e
-1.4291712	d t e
-1.5473347	m t e
-1.4495144	g t e
-0.97069484	u t e
-1.1634697	c t e
-1.4546872	b t e
-2.9461846	w t e
-1.1534847	h t e
-1.3753918	y t e
-1.3238468	l t e
-1.4698832	v t e
-1.3993078	k t e
-3.4750757	q t e
-0.7882318	z t e
-0.962915	<s> f e
-1.5190166	a f e
-0.6184571	s f e
-1.2717633	i f e
-0.74629617	n f e
-0.8459168	e f e
-0.45954636	p f e
-2.8965895	o f e
-0.9381321	r f e
-1.6566309	t f e
-0.31925413	f f e
-1.6345675	d f e
-1.412282	m f e
-1.210675	g f e
-2.1782134	u f e
-1.8592521	c f e
-1.5362563	h f e
-1.480408	y f e
-2.3989055	l f e
-1.1075265	v f e
-0.998016	z f e
-0.5278955	<s> d e
-0.5198077	a d e
-2.066631	s d e
-0.79949534	i d e
-0.94306755	n d e
-1.5444463	e d e
-1.379114	o d e
-1.0400556	r d e
-2.68747	t d e
-0.3336811	d d e
-1.2524949	m d e
-2.090521	g d e
-0.24852687	u d e
-1.802943	c d e
-1.1480981	b d e
-0.6723981	w d e
-2.1899228	h d e
-0.86214846	y d e
-0.94145507	l d e
-1.7490628	k d e
-0.9928629	<s> m e
-0.38389868	a m e
-0.91878074	s m e
-0.7288733	i m e
-0.032688953	n m e
-0.4468945	e m e
-0.028665226	p m e
-0.8383297	o m e
-0.8846731	r m e
-0.030977702	t m e
-1.0959666	f m e
-1.0711361	d m e
-0.51935655	m m e
-0.57593775	g m e
-0.64821905	u m e
-0.9609847	j m e
-0.76084036	c m e
-1.1780391	b m e
-1.5685886	w m e
-0.72123915	h m e
-0.056491293	y m e
-0.7322605	l m e
-2.1545105	k m e
-0.778756	q m e
-0.8303124	<s> g e
-0.464456	a g e
-0.74273765	s g e
-1.4952565	i g e
-0.9945407	n g e
-1.1942325	e g e
-1.0007569	o g e
-0.2342568	r g e
-2.9112904	t g e
-1.9157988	f g e
-0.071715586	d g e
-0.9623835	m g e
-0.2937312	g g e
-1.4845333	u g e
-1.1311591	c g e
-1.3251522	b g e
-0.82097226	y g e
-0.5648614	l g e
-2.3533154	v g e
-1.8717679	k g e
-0.7645877	z g e
-3.826795	<s> u e
-2.8766916	a u e
-1.1357689	s u e
-0.52896225	n u e
-2.7441642	e u e
-2.3256295	p u e
-3.5050535	o u e
-1.9469253	r u e
-1.6952229	t u e
-1.3063287	f u e
-1.1087013	d u e
-1.7840443	m u e
-1.1127157	g u e
-2.617142	j u e
-2.4838653	c u e
-2.4295046	b u e
-1.8184559	y u e
-0.8619889	l u e
-1.8304759	v u e
-2.1988394	k u e
-0.98581225	q u e
-0.13141416	z u e
-1.540993	<s> j e
-1.7739403	a j e
-1.5010206	i j e
-0.6087709	n j e
-0.041079707	e j e
-0.060298182	o j e
-0.43386367	r j e
-0.2663441	m j e
-1.6535467	u j e
-0.027833194	b j e
-0.3197288	l j e
-0.13972847	k j e
-1.4604368	<s> c e
-1.1763278	a c e
-1.7491641	s c e
-0.67254597	i c e
-0.48101255	n c e
-0.9930193	e c e
-0.78602535	x c e
-3.8293028	p c e
-1.0562805	o c e
-0.5135967	r c e
-2.82936	t c e
-2.152805	m c e
-0.62687737	u c e
-0.6023684	c c e
-2.250175	b c e
-1.8394464	y c e
-2.1284957	l c e
-1.5637946	v c e
-0.59557694	<s> b e
-1.7586652	a b e
-1.5296916	s b e
-0.95429456	i b e
-0.31266478	n b e
-1.214403	e b e
-0.71671236	p b e
-0.6381347	o b e
-0.93044865	r b e
-1.1484115	t b e
-0.97251534	d b e
-0.16112566	m b e
-2.025425	u b e
-1.9115636	c b e
-0.32399827	b b e
-1.6191298	h b e
-0.051090438	y b e
-0.65158045	l b e
-1.8337975	k b e
-0.7818297	z b e
-0.69725204	<s> w e
-2.2517347	a w e
-0.49321723	s w e
-2.3317838	i w e
-0.7441691	n w e
-1.3378729	e w e
-0.15559493	x w e
-1.873525	p w e
-0.65698254	o w e
-1.1245157	r w e
-0.57798266	t w e
-1.0429021	f w e
-0.90296257	d w e
-1.1098013	m w e
-0.74792385	g w e
-1.8678027	u w e
-1.3884702	c w e
-0.16785195	b w e
-0.20768793	h w e
-0.31814048	y w e
-1.7875332	l w e
-1.027953	k w e
-0.9908605	z w e
-0.5637701	<s> h e
-0.57417196	a h e
-1.2102113	s h e
-1.6542091	i h e
-0.82476974	n h e
-1.5045288	e h e
-0.977058	p h e
-1.3044748	o h e
-0.9902994	r h e
-0.15811019	t h e
-1.6652942	f h e
-0.38255432	d h e
-0.83420163	g h e
-1.4355663	u h e
-0.9956558	c h e
-0.5433487	w h e
-0.7933296	h h e
-0.9091423	l h e
-1.4036685	k h e
-0.47368774	z h e
-0.05813042	<s> y e
-1.7574269	a y e
-2.7896616	s y e
-1.4571004	i y e
-3.5282454	n y e
-1.7052344	e y e
-1.4931871	p y e
-0.6800891	o y e
-3.20871	r y e
-2.5423923	f y e
-1.4840727	d y e
-1.3259242	m y e
-0.98174113	u y e
-0.24906163	j y e
-3.221506	b y e
-0.41002584	w y e
-2.9404423	l y e
-0.900643	<s> l e
-1.0169506	a l e
-1.0132167	s l e
-1.1652303	i l e
-0.79699636	n l e
-0.95534563	e l e
-0.72699785	x l e
-0.7606757	p l e
-1.1850132	o l e
-1.2663734	r l e
-0.59791654	t l e
-0.5935489	f l e
-1.7043381	d l e
-2.964971	m l e
-0.65964085	g l e
-1.3536539	u l e
-1.0509241	c l e
-0.19213627	b l e
-0.49523643	w l e
-0.85911095	h l e
-0.52576786	y l e
-1.1607368	l l e
-1.2537158	v l e
-0.88087016	k l e
-0.2605063	z l e
-1.0553536	<s> v e
-0.24334805	a v e
-0.9467395	s v e
-0.18270047	i v e
-0.10383638	n v e
-0.27465707	e v e
-0.12305869	o v e
-0.19883394	r v e
-1.204521	t v e
-0.31303912	f v e
-0.78160876	d v e
-0.28788728	m v e
-0.9985119	g v e
-0.76447964	u v e
-1.3399014	c v e
-1.3236587	b v e
-0.75977296	h v e
-0.77122307	y v e
-0.1403729	l v e
-0.43288687	k v e
-0.14087556	z v e
-0.67024505	<s> k e
-0.14696221	a k e
-0.35891953	s k e
-0.069814265	i k e
-1.0580338	n k e
-1.3104596	e k e
-0.9353587	p k e
-0.2647906	o k e
-0.2086763	r k e
-0.6465773	t k e
-1.2490637	d k e
-1.1947525	m k e
-1.1124362	u k e
-0.3096731	j k e
-1.0291246	c k e
-0.77051836	w k e
-1.4979879	h k e
-0.3465125	y k e
-1.2658973	l k e
-1.0291785	k k e
-0.76909506	z k e
-4.239223	<s> 5 e
-3.268127	<s> q e
-2.5510554	a q e
-1.9958876	d q e
-0.55760914	<s> z e
-1.2163345	a z e
-1.2557855	s z e
-0.22086239	i z e
-1.4559696	n z e
-0.90064776	e z e
-0.9029857	p z e
-0.20386149	o z e
-1.4152611	r z e
-0.7022237	t z e
-0.84107804	d z e
-0.74091524	c z e
-0.6078123	y z e
-0.32406095	l z e
-1.6402972	z z e
-3.590705	<s> a x
-3.7666647	s a x
-4.044806	i a x
-3.6872892	e a x
-3.9833834	p a x
-2.5721335	o a x
-4.2421713	r a x
-1.1696181	t a x
-2.719548	f a x
-2.1568854	m a x
-3.7402039	u a x
-3.513706	j a x
-3.4153695	c a x
-3.2869983	b a x
-3.3779616	w a x
-2.6065218	l a x
-3.4956555	v a x
-5.0092626	<s> s x
-4.1328654	s s x
-4.7782235	e s x
-4.2298455	o s x
-2.8420901	g s x
-2.4653146	u s x
-2.224714	c s x
-3.93225	l s x
-3.9508219	<s> i x
-4.349977	a i x
-1.2518599	s i x
-2.6758215	n i x
-3.1885867	e i x
-3.6220973	r i x
-4.4097	t i x
-1.9045901	f i x
-2.144116	d i x
-2.382506	m i x
-3.0781655	u i x
-3.8565173	c i x
-3.6094878	w i x
-3.1569538	h i x
-3.7334135	l i x
-3.7889726	a n x
-4.621221	i n x
-2.0010817	p n x
-4.84522	o n x
-4.0044527	r n x
-2.97071	t n x
-3.6348462	w n x
-0.4629637	<s> e x
-3.734921	s e x
-1.6938121	n e x
-3.770282	e e x
-3.152946	p e x
-2.8209438	o e x
-2.8111007	r e x
-1.9203744	t e x
-2.9286878	f e x
-2.1236777	d e x
-2.229582	m e x
-3.6319025	g e x
-3.3999465	c e x
-3.2501612	b e x
-3.7985697	h e x
-2.7830286	y e x
-2.070313	l e x
-3.5343235	v e x
-2.7421844	a x x
-2.1741638	e x x
-2.173379	x x x
-1.9568775	t x x
-1.6141824	m x x
-1.6450398	l x x
-4.060227	e p x
-4.1945043	o p x
-2.547441	y p x
-2.5817273	l p x
-3.2124586	<s> o x
-3.9818745	i o x
-3.1795895	n o x
-3.0686467	e o x
-4.130212	p o x
-2.3776345	r o x
-3.8066766	t o x
-3.0295465	f o x
-3.3933828	d o x
-3.5463457	c o x
-2.3297508	b o x
-3.9300454	h o x
-3.1377358	y o x
-4.137267	l o x
-4.003496	<s> r x
-3.909809	a r x
-4.6514745	e r x
-1.221521	x r x
-4.4262013	p r x
-4.392699	o r x
-3.4653492	t r x
-3.3523743	d r x
-2.2085655	m r x
-3.9193385	g r x
-3.6959028	b r x
-3.8486078	h r x
-4.1512923	l r x
-3.646273	<s> t x
-4.4323516	a t x
-4.416527	s t x
-4.08262	i t x
-4.377186	n t x
-4.129471	e t x
-3.927931	o t x
-3.043268	t t x
-2.0562084	d t x
-2.6233017	m t x
-2.1038043	g t x
-3.7477477	u t x
-2.3902068	b t x
-3.8683743	l t x
-1.0580142	v t x
-1.4766628	k t x
-4.7472253	<s> f x
-2.0835419	s f x
-2.6766443	t f x
-3.9128919	f f x
-2.0184307	h f x
-4.100197	<s> d x
-3.7980766	a d x
-4.468838	i d x
-4.6257586	e d x
-3.5156481	o d x
-1.5337458	f d x
-1.8845645	m d x
-2.4799411	g d x
-4.0248237	<s> m x
-3.6643622	a m x
-3.4478576	s m x
-4.5193806	o m x
-1.1280737	w m x
-2.3900876	h m x
-3.7054083	n g x
-3.7987254	r g x
-2.1584728	a u x
-2.6758487	e u x
-3.791973	o u x
-3.1444182	r u x
-3.216281	h u x
-2.0397024	l u x
-3.8568656	<s> c x
-3.4775598	s c x
-4.1685967	i c x
-4.1656613	n c x
-3.8458672	o c x
-3.6922522	r c x
-2.0124867	f c x
-2.3776665	d c x
-2.8177776	c c x
-2.1000469	b c x
-3.74698	a b x
-2.3374667	p b x
-1.8323228	f b x
-2.1475587	d b x
-3.9764464	<s> w x
-4.5033426	<s> h x
-4.385052	s h x
-3.244074	p h x
-2.1293538	l h x
-4.1081147	a y x
-3.2765048	n y x
-4.112226	r y x
-3.5290983	t y x
-4.2214866	l y x
-4.3881226	<s> l x
-4.394524	a l x
-3.200361	e l x
-3.9349158	p l x
-3.97557	o l x
-2.7374825	t l x
-3.2870142	f l x
-3.8796122	d l x
-3.3790655	m l x
-3.0152113	g l x
-3.799112	c l x
-1.9357128	h l x
-4.3128853	l l x
-3.8274353	a v x
-3.644401	n v x
-0.6781433	t v x
-3.2642848	s k x
-2.279082	w k x
-4.359469	<s> 3 x
-1.4618831	<s> a p
-1.8870696	a a p
-2.6032815	s a p
-3.862211	i a p
-2.4473114	n a p
-2.3744204	e a p
-1.7210809	p a p
-2.8469334	o a p
-1.9911648	r a p
-2.5838208	t a p
-2.519191	d a p
-3.119288	m a p
-1.6281431	g a p
-3.6523871	u a p
-0.29843432	j a p
-1.1519134	c a p
-3.764224	b a p
-2.1814663	w a p
-2.189876	h a p
-2.8513348	y a p
-2.3531585	l a p
-3.1038737	v a p
-1.6611189	k a p
-2.717887	z a p
-1.4495423	<s> s p
-2.70171	a s p
-3.8967097	s s p
-1.9528512	i s p
-1.670492	n s p
-1.7287936	e s p
-2.9651444	p s p
-1.6498487	o s p
-3.6214416	r s p
-3.6040924	t s p
-2.1482472	f s p
-3.3056207	d s p
-3.1604471	m s p
-2.24592	g s p
-1.8625236	u s p
-2.3941529	c s p
-0.92611253	w s p
-3.1506174	h s p
-3.372342	l s p
-4.1946793	v s p
-3.4415514	k s p
-2.1549466	0 s p
-3.480002	<s> i p
-3.646414	a i p
-2.706548	s i p
-2.1242518	n i p
-1.8747869	e i p
-1.1552922	p i p
-2.4046054	r i p
-3.158845	t i p
-4.054093	f i p
-2.0815265	d i p
-2.3543751	g i p
-1.398147	u i p
-1.2792197	c i p
-3.3201566	b i p
-3.2081642	w i p
-1.0139812	h i p
-1.9178478	l i p
-3.1266975	k i p
-2.8602395	<s> n p
-3.9983456	a n p
-2.4869664	s n p
-3.6058686	i n p
-4.0803156	e n p
-1.0024922	p n p
-3.5146723	o n p
-2.4499505	d n p
-1.3337569	g n p
-2.4833531	u n p
-1.3855245	c n p
-1.4340521	b n p
-3.0808575	w n p
-4.0708404	l n p
-2.6905012	k n p
-2.8707733	<s> e p
-2.138361	a e p
-1.7156683	s e p
-3.6146414	i e p
-3.1841567	n e p
-1.6468658	e e p
-2.761318	p e p
-2.4412363	o e p
-1.362851	r e p
-2.3879955	t e p
-1.268077	d e p
-3.7938938	m e p
-2.845361	g e p
-3.532323	u e p
-2.9355364	j e p
-1.6335219	c e p
-3.3966403	w e p
-3.9202688	h e p
-2.2515287	l e p
-2.3425007	k e p
-1.59221	<s> x p
-1.9253131	a x p
-0.31578606	e x p
-1.7112211	r x p
-1.9449638	t x p
-1.9861014	u x p
-3.3166344	<s> p p
-0.62198126	a p p
-3.719887	s p p
-0.7546203	i p p
-1.2252616	n p p
-2.375991	e p p
-3.51499	p p p
-1.1308554	o p p
-4.004786	m p p
-0.66476566	u p p
-2.3055096	c p p
-0.94610584	w p p
-2.7256615	l p p
-1.1681993	<s> o p
-2.5996253	a o p
-3.0124934	s o p
-3.278923	i o p
-2.617556	n o p
-0.66317165	e o p
-2.3989415	p o p
-1.1148553	o o p
-1.0179291	r o p
-2.1288064	t o p
-1.7375846	d o p
-3.126554	m o p
-3.5746117	g o p
-2.8434978	u o p
-2.4724588	j o p
-2.117116	c o p
-3.482636	b o p
-3.8828847	w o p
-1.5313687	h o p
-1.2619869	l o p
-3.0241752	v o p
-2.2139943	k o p
-3.251587	<s> r p
-2.0847979	a r p
-2.5785394	s r p
-2.5940318	i r p
-2.5232913	e r p
-1.164804	o r p
-3.6286082	t r p
-3.8322542	f r p
-3.6277843	g r p
-1.3921634	u r p
-3.5462985	c r p
-3.3246026	h r p
-2.3360968	y r p
-2.4065738	k r p
-4.0928445	<s> t p
-3.0609078	a t p
-2.8767416	s t p
-3.2721713	e t p
-3.4189231	p t p
-4.064262	o t p
-3.3319144	f t p
-3.0188458	m t p
-1.4691135	u t p
-4.3377895	c t p
-2.9929118	b t p
-3.4093523	h t p
-4.0024977	l t p
-3.9012973	<s> f p
-3.2937126	a f p
-2.442904	s f p
-3.2405486	e f p
-4.58884	o f p
-2.6617692	r f p
-2.047766	c f p
-1.4512812	w f p
-3.1260116	l f p
-0.23606227	z f p
-3.8803387	<s> d p
-3.9020677	a d p
-2.9141152	s d p
-3.905755	i d p
-4.0488644	n d p
-4.1767793	e d p
-3.712783	r d p
-1.6968098	f d p
-1.7963575	m d p
-0.23184809	g d p
-2.2125235	c d p
-2.0173523	b d p
-2.2419446	h d p
-2.5884888	l d p
-3.1741765	<s> m p
-1.290095	a m p
-3.2020805	s m p
-0.4828238	i m p
-3.190336	n m p
-1.069039	e m p
-3.019123	p m p
-0.5529237	o m p
-3.3978446	t m p
-1.6295339	d m p
-2.2191699	g m p
-0.9541787	u m p
-1.3974898	c m p
-1.9713196	w m p
-2.4319017	h m p
-1.8057953	y m p
-2.7313015	l m p
-3.1755989	<s> g p
-3.2667599	a g p
-1.9813869	s g p
-3.7045927	n g p
-3.4461637	e g p
-3.1971257	t g p
-1.2088652	c g p
-1.5926896	b g p
-2.2293177	v g p
-0.86398345	<s> u p
-2.3588738	a u p
-0.9314466	s u p
-2.2890625	n u p
-2.7759235	e u p
-1.538654	x u p
-3.433471	p u p
-1.1777945	o u p
-1.3580346	r u p
-2.7264044	t u p
-2.5931895	d u p
-3.3086216	m u p
-3.0607264	j u p
-2.6424143	c u p
-2.7896085	h u p
-3.0899355	l u p
-1.0833114	k u p
-2.6190643	<s> j p
-2.6194112	<s> c p
-3.2036834	a c p
-4.154081	i c p
-3.7389348	n c p
-3.4058673	x c p
-3.874245	p c p
-3.365291	r c p
-2.8779109	t c p
-2.0320673	f c p
-2.2811213	d c p
-2.0280218	g c p
-2.6045258	u c p
-0.5711488	j c p
-3.3006282	c c p
-2.207132	b c p
-1.9709063	<s> b p
-3.729184	a b p
-2.6783779	s b p
-2.5661747	i b p
-2.240857	p b p
-2.2768178	t b p
-1.7775515	d b p
-2.6639848	u b p
-3.5778646	<s> w p
-2.2475646	s w p
-2.1631126	n w p
-2.5644245	e w p
-3.8653874	o w p
-2.2633626	d w p
-1.5165586	j w p
-1.4028469	w w p
-1.9183882	k w p
-3.3171961	<s> h p
-2.684757	a h p
-3.9759908	s h p
-3.1859884	e h p
-2.929929	p h p
-4.7136455	t h p
-1.7135464	m h p
-2.9353628	g h p
-3.704608	c h p
-0.35358816	b h p
-3.806425	<s> y p
-3.826729	a y p
-2.6502197	o y p
-1.8057874	t y p
-1.0805901	g y p
-3.189064	u y p
-1.9678743	c y p
-3.5740833	b y p
-1.6175585	h y p
-2.9807398	l y p
-2.6565406	<s> l p
-3.0715733	a l p
-3.865636	i l p
-1.4899724	e l p
-3.926364	p l p
-3.2870407	o l p
-3.4109478	r l p
-3.2817786	t l p
-3.3998716	f l p
-3.5045097	m l p
-3.0068905	g l p
-2.166708	u l p
-4.2180796	l l p
-3.8747644	a v p
-2.584882	<s> k p
-2.4462166	s k p
-2.1392207	c k p
-2.943374	<s> 3 p
-0.3193794	h 3 p
-2.1327145	3 3 p
-2.4278538	1 3 p
-2.5690267	7 3 p
-2.627347	5 3 p
-2.5369935	9 3 p
-2.6548939	4 3 p
-2.4936507	8 3 p
-2.6953385	2 3 p
-2.8689346	<s> 0 p
-2.6861749	3 0 p
-3.5198839	0 0 p
-2.8837285	1 0 p
-2.7535317	7 0 p
-3.2036135	5 0 p
-2.768675	6 0 p
-2.511527	9 0 p
-2.750615	8 0 p
-3.19693	2 0 p
-3.5039833	<s> 1 p
-2.9934137	3 1 p
-2.3944101	0 1 p
-2.6718628	1 1 p
-2.7102482	5 1 p
-2.5785463	6 1 p
-2.3830502	9 1 p
-2.5008192	4 1 p
-2.382356	8 1 p
-2.6784854	2 1 p
-2.6582751	<s> 7 p
-2.4429448	3 7 p
-2.510913	1 7 p
-2.474778	7 7 p
-2.4686465	6 7 p
-2.4449716	9 7 p
-2.665593	4 7 p
-3.3538172	8 7 p
-2.8614442	2 7 p
-2.371613	<s> 5 p
-2.5249333	3 5 p
-2.0600624	0 5 p
-2.770566	1 5 p
-1.8831494	7 5 p
-2.667633	5 5 p
-2.3637235	6 5 p
-2.3086758	9 5 p
-2.6044118	4 5 p
-2.9580824	8 5 p
-2.2535696	2 5 p
-2.735037	<s> 6 p
-2.4686954	0 6 p
-2.8576586	1 6 p
-2.5345001	7 6 p
-2.5557957	5 6 p
-2.4872801	6 6 p
-2.5365536	9 6 p
-2.6383526	4 6 p
-3.3673964	8 6 p
-2.8049786	2 6 p
-2.7174182	<s> 9 p
-2.6655242	0 9 p
-3.6575255	1 9 p
-2.4559484	7 9 p
-2.376974	5 9 p
-2.5954776	9 9 p
-2.6660736	4 9 p
-2.5771759	8 9 p
-2.6309714	2 9 p
-3.2793915	<s> q p
-3.2583659	e q p
-2.9427793	<s> 4 p
-2.6415882	3 4 p
-2.806878	1 4 p
-2.4389617	7 4 p
-2.6174822	5 4 p
-2.5246425	6 4 p
-2.6083713	2 4 p
-3.064688	<s> 8 p
-2.403207	3 8 p
-2.4481907	0 8 p
-2.6680937	1 8 p
-2.488432	7 8 p
-2.4777546	5 8 p
-2.4622192	6 8 p
-2.6673944	4 8 p
-2.8346066	8 8 p
-2.8127494	2 8 p
-2.9323552	<s> 2 p
-2.7817261	3 2 p
-2.5338275	0 2 p
-2.5937378	1 2 p
-2.52909	7 2 p
-2.713523	5 2 p
-2.680509	9 2 p
-2.388319	4 2 p
-2.849444	2 2 p
-1.7278478	a z p
-4.434966	<s> a o
-3.062208	s a o
-3.5687819	i a o
-3.968639	n a o
-4.009575	e a o
-3.4805565	p a o
-3.3971217	o a o
-2.001957	r a o
-4.158994	t a o
-2.6761358	f a o
-3.70328	m a o
-2.5286806	g a o
-3.7885275	u a o
-3.7238777	c a o
-3.4948654	b a o
-3.7775624	h a o
-2.291402	y a o
-3.0713406	l a o
-2.567624	k a o
-2.7630386	z a o
-1.2303346	<s> s o
-1.530174	a s o
-1.3077401	s s o
-2.0427015	i s o
-1.5376706	n s o
-1.9279954	e s o
-1.9855556	p s o
-3.1267645	o s o
-1.8127539	r s o
-2.940573	t s o
-1.8248698	f s o
-1.6226281	d s o
-1.8253589	m s o
-3.3117018	g s o
-3.2867122	u s o
-1.9442536	c s o
-1.467491	b s o
-0.9332821	w s o
-2.1914356	h s o
-2.7034895	y s o
-0.5083031	l s o
-2.2146351	k s o
-3.1281626	<s> i o
-3.9534988	a i o
-0.7611029	s i o
-2.042769	i i o
-1.1920159	n i o
-1.9701393	x i o
-1.5986618	p i o
-1.151146	r i o
-0.3573484	t i o
-3.5259104	f i o
-2.224252	d i o
-3.4237342	m i o
-1.1668571	g i o
-3.5335178	u i o
-2.2029104	c i o
-1.94884	b i o
-2.2215621	h i o
-0.68530345	l i o
-0.94812846	v i o
-2.6246498	k i o
-1.8232538	z i o
-0.44644877	<s> n o
-2.1331854	a n o
-0.42454475	s n o
-2.4686615	i n o
-0.760354	n n o
-2.1879668	e n o
-0.13806428	x n o
-1.5269784	o n o
-1.2788836	r n o
-2.7387617	t n o
-2.0254672	d n o
-1.8468776	m n o
-1.6814178	g n o
-2.567248	u n o
-1.4562246	c n o
-0.98320645	b n o
-0.4265582	h n o
-0.9825137	y n o
-1.1987901	v n o
-0.17090423	k n o
-4.2787275	<s> e o
-2.5104418	a e o
-3.174521	s e o
-3.0082817	n e o
-4.0514164	e e o
-1.9930427	p e o
-2.6595705	r e o
-3.056922	t e o
-2.4750857	d e o
-3.2717092	m e o
-1.9555563	g e o
-1.897611	j e o
-3.806087	c e o
-4.1031003	b e o
-3.3826199	h e o
-3.4432466	y e o
-2.6226401	l e o
-4.356106	v e o
-1.5282384	k e o
-0.7789582	<s> x o
-2.4319322	a x o
-1.0389004	i x o
-2.957889	e x o
-0.055437002	x x o
-2.4306295	o x o
-1.8860205	t x o
-1.0562192	l x o
-1.0759506	<s> p o
-1.7053269	a p o
-0.5402502	s p o
-2.1420379	i p o
-1.2344546	n p o
-0.51104945	e p o
-0.41724303	x p o
-0.71078837	p p o
-0.93963665	o p o
-1.0423279	r p o
-1.1748971	t p o
-1.4384998	d p o
-0.8049683	m p o
-1.7758809	u p o
-1.249704	c p o
-2.2370517	b p o
-0.55827177	w p o
-1.6557919	h p o
-1.5979203	y p o
-2.5324242	l p o
-1.6150289	k p o
-0.6624739	q p o
-4.5867367	<s> o o
-1.7776803	s o o
-3.9458933	i o o
-2.2068715	n o o
-2.1146128	p o o
-3.0753956	o o o
-2.2836747	r o o
-1.9877164	t o o
-1.6736917	f o o
-2.045388	d o o
-2.0981042	m o o
-0.8858979	g o o
-2.0351405	c o o
-1.2212406	b o o
-1.6264077	w o o
-2.0603807	h o o
-2.7225263	y o o
-1.4776958	l o o
-1.8139622	k o o
-2.4659753	z o o
-1.1586857	<s> r o
-1.8256378	a r o
-1.8159803	s r o
-1.6603757	i r o
-0.7269741	n r o
-2.4268973	e r o
-0.29393747	p r o
-2.4540966	o r o
-0.9428599	r r o
-0.92891014	t r o
-0.14708906	f r o
-0.50036407	d r o
-0.4037204	m r o
-0.45708326	g r o
-1.3289171	u r o
-0.7897187	c r o
-0.7066244	b r o
-1.0054533	w r o
-0.9870934	h r o
-0.955571	y r o
-2.3354363	l r o
-0.8419889	v r o
-1.0187532	k r o
-0.8949598	z r o
-0.5567825	<s> t o
-1.6640671	a t o
-0.9985278	s t o
-2.02976	i t o
-1.5297805	n t o
-2.5120208	e t o
-2.1467097	x t o
-2.6472392	p t o
-1.7865204	o t o
-2.137653	r t o
-1.067241	t t o
-2.6065211	f t o
-1.8877475	d t o
-2.704889	m t o
-0.20742564	g t o
-1.7723566	u t o
-1.2765065	c t o
-1.5298902	b t o
-2.7911918	w t o
-2.954402	h t o
-0.38452867	y t o
-2.266622	l t o
-0.8118772	k t o
-3.3680134	q t o
-0.4543947	<s> f o
-2.396585	a f o
-1.2886767	s f o
-1.4260957	i f o
-0.74429715	n f o
-0.8480387	e f o
-0.33260605	x f o
-3.6920953	o f o
-0.24043122	r f o
-0.31803516	t f o
-1.4978683	f f o
-0.9305147	d f o
-0.8068018	m f o
-1.2942264	g f o
-1.7901539	u f o
-1.5220697	b f o
-1.0611242	w f o
-0.10712028	y f o
-1.7302972	l f o
-0.26469958	k f o
-1.1642152	z f o
-0.9347497	<s> d o
-1.5432181	a d o
-1.8748106	s d o
-3.2582715	i d o
-1.7352685	n d o
-2.4062529	e d o
-0.31934056	x d o
-2.557522	p d o
-2.218365	o d o
-2.0791037	r d o
-1.6334325	t d o
-1.4735843	f d o
-2.9112341	d d o
-1.5549159	m d o
